baseline/conv2d/kernel:0
(5, 5, 3, 6)
[[[[-0.01299897 -0.1563458   0.06004483  0.46997586 -0.08488826
     0.01326654]
   [ 0.0156755   0.00887956 -0.08699074 -0.14064492  0.08923565
    -0.18541253]
   [ 0.08022235  0.0713293  -0.02534775 -0.14232749  0.05069561
    -0.40159062]]

  [[-0.06578598 -0.2978117   0.12255345 -0.05905535 -0.07876264
    -0.08195314]
   [-0.14929464  0.03739054  0.04332241 -0.12728925 -0.04331601
    -0.20330471]
   [-0.19328056 -0.12420243  0.00759541 -0.24197939 -0.14306295
    -0.26570484]]

  [[-0.05642242 -0.41964844 -0.033666   -0.06126958  0.15608765
     0.18253848]
   [-0.32418102 -0.10647084 -0.09924747 -0.09903301  0.07173858
    -0.02973292]
   [-0.14332297  0.15686126 -0.19929133  0.03124314  0.08480152
     0.00130446]]

  [[-0.03893593 -0.28238738  0.2114675  -0.1721875   0.00815838
     0.09991158]
   [ 0.06724691 -0.15168624 -0.16568018  0.06930593  0.06597395
     0.21815142]
   [ 0.2145225   0.13454154  0.04447748  0.11217096 -0.1213757
     0.24376544]]

  [[ 0.11565828 -0.2420896   0.43454078 -0.06583151 -0.07998633
     0.22143276]
   [ 0.22572297 -0.31117907 -0.16619852  0.05873863 -0.12274268
     0.23268989]
   [ 0.22443543  0.21373409 -0.2615201   0.1186884   0.06134685
    -0.01822096]]]


 [[[ 0.22714514 -0.32417673 -0.01162287  0.40027693 -0.08774111
    -0.13960458]
   [ 0.05846518 -0.0353254   0.05443547  0.03287076  0.08521122
    -0.16601774]
   [ 0.04357005  0.14911242  0.14559485 -0.03940709 -0.18450189
     0.03831252]]

  [[ 0.23454762 -0.11350512  0.19311993 -0.0421452  -0.07064972
     0.02631991]
   [-0.02004519 -0.04986407  0.14733718 -0.25031158  0.04240514
     0.09985572]
   [ 0.10510577 -0.03321019  0.18651332 -0.19807461  0.07987703
     0.4752608 ]]

  [[-0.19550513 -0.1533843   0.04333982 -0.16982506  0.09817921
     0.07796101]
   [-0.35714933  0.11377867  0.29946283 -0.26356474  0.37419075
    -0.04171324]
   [-0.05680811  0.1943911   0.2665071   0.00734669  0.2446188
     0.57066524]]

  [[-0.1978351  -0.30602714 -0.11295045 -0.03686803 -0.18195908
    -0.05699454]
   [-0.26184845  0.11323118 -0.16033676 -0.06441908 -0.23845069
     0.11845011]
   [-0.12757175  0.2548925   0.17041793  0.1935043  -0.25696713
     0.3748876 ]]

  [[ 0.05343376 -0.07881245  0.07310385  0.01589103  0.16802369
    -0.01554095]
   [ 0.0110754   0.02739745 -0.25837398  0.05891182 -0.11062277
     0.06642114]
   [ 0.2858346   0.28127745 -0.2681423   0.27072263  0.00657232
    -0.22278257]]]


 [[[ 0.02323899  0.3125984  -0.3970878   0.30124706  0.07459968
     0.04955465]
   [ 0.06337351  0.0209155  -0.19601043  0.21836442  0.09266263
    -0.04154187]
   [ 0.01417767  0.1276836  -0.31276122  0.07197561  0.13372816
     0.09943423]]

  [[ 0.34041423  0.14412315 -0.37899244  0.02519815  0.22884065
    -0.23322538]
   [ 0.14271295  0.10063352 -0.27803662 -0.28468502  0.39328432
     0.00962558]
   [-0.11196624  0.08745397 -0.02323962 -0.36207533  0.06501035
     0.5676681 ]]

  [[ 0.2646195   0.14441915 -0.26622534 -0.3759575  -0.32920367
    -0.07089321]
   [ 0.02045498  0.16634804 -0.02373164 -0.31027082 -0.19996619
    -0.00282133]
   [ 0.1318418   0.22575256 -0.08337481 -0.2654625  -0.27366605
     0.41964576]]

  [[-0.11575753 -0.19709237  0.22888832  0.12492276 -0.11587721
    -0.2604269 ]
   [-0.27156764  0.09788112  0.459593    0.12865663 -0.3044804
     0.04482772]
   [-0.34981453  0.29304063  0.38931563  0.18294781 -0.35261956
    -0.00271715]]

  [[ 0.09210806 -0.0185679   0.09879879  0.11471759  0.15100834
     0.07083347]
   [-0.21990478  0.03622729  0.23144454  0.13414304  0.08192368
    -0.05254484]
   [-0.31551972  0.2783894   0.14679487  0.13664486  0.3537167
    -0.4248711 ]]]


 [[[ 0.01056826  0.28483108  0.17009516  0.06159985 -0.00858925
     0.1265859 ]
   [-0.05806153 -0.029556    0.21430278  0.12297464  0.06738754
    -0.11351351]
   [-0.00356252  0.01342088  0.16002224  0.26268402 -0.13561824
     0.22897267]]

  [[ 0.09188996  0.22806935 -0.06082739 -0.25623998 -0.28896526
     0.09504293]
   [-0.03989467 -0.17764933  0.15160558 -0.0714467  -0.19339283
     0.18126735]
   [ 0.08560141 -0.18915802  0.1433418  -0.18388753 -0.07512252
     0.26924586]]

  [[ 0.27582976  0.1192731  -0.0603077  -0.43254378 -0.12761463
    -0.03979875]
   [ 0.19047609 -0.02504031 -0.1570742  -0.15041173 -0.2733359
    -0.15721159]
   [ 0.3131798   0.16014704 -0.19293815 -0.19567259 -0.3088066
     0.0965054 ]]

  [[ 0.22390491 -0.21181116 -0.39816716 -0.09023018  0.3003827
     0.0265945 ]
   [-0.05679946 -0.18695304  0.02562064  0.18480794  0.38544556
    -0.2504527 ]
   [ 0.01026185  0.16595809 -0.18147716  0.2925951   0.32739627
     0.03385174]]

  [[-0.13304648  0.12293892  0.05859585  0.02494812  0.11010615
     0.12977138]
   [-0.47892845 -0.06091427  0.07081468  0.18545866 -0.00765781
    -0.12087239]
   [-0.4814338   0.07156273  0.06587301  0.32528234  0.11996081
    -0.30895597]]]


 [[[-0.23115276  0.2471213   0.08843717  0.124895    0.02382785
     0.3286023 ]
   [ 0.03134544 -0.08119342 -0.18476757 -0.10465869 -0.11936428
     0.0124674 ]
   [-0.04133676 -0.2412515   0.01568734  0.14050981 -0.04423749
     0.16857137]]

  [[-0.14206676  0.16808195  0.06294018 -0.00368504  0.0209362
     0.11869571]
   [-0.12050464 -0.07422481 -0.14546998 -0.37357488  0.07673033
     0.12331664]
   [ 0.01470832 -0.3588209   0.17757885 -0.21032584  0.01715325
    -0.10304119]]

  [[ 0.00897015  0.21863015  0.01340269 -0.1268666   0.04146139
    -0.0342606 ]
   [ 0.07108519 -0.02777787 -0.04616685 -0.37410933  0.06301528
    -0.29716885]
   [ 0.2795068  -0.32728457  0.00710568 -0.23949857  0.12757576
    -0.06221628]]

  [[ 0.23041804  0.14190432 -0.10357129  0.08761669  0.20767008
     0.0807915 ]
   [ 0.30606806 -0.2502468  -0.18916014 -0.00446483  0.16638617
    -0.15460932]
   [ 0.35296166 -0.16068453  0.13152617  0.11777773  0.21469633
    -0.1887928 ]]

  [[-0.1297748   0.3209333  -0.08881993 -0.00545039 -0.25172588
     0.14701131]
   [-0.10379326 -0.02710208 -0.21606033  0.22145629 -0.39253527
     0.0731067 ]
   [-0.20840946 -0.23712903 -0.33950168  0.14197026 -0.13696967
    -0.4065655 ]]]]
baseline/conv2d/bias:0
(6,)
[-0.13343169  0.09363315 -0.1242838  -0.10023124  0.05156369 -0.13488428]
baseline/batch_normalization/gamma:0
(6,)
[0.52645123 0.5311658  0.6838423  0.8114931  0.5691712  0.5206088 ]
baseline/batch_normalization/beta:0
(6,)
[-0.21159348 -0.15377715 -0.45039824 -0.47376326 -0.24143277 -0.36644006]
baseline/dense/kernel:0
(1536, 128)
[[-1.74048990e-02 -1.72179774e-03 -1.33276805e-01  3.40204686e-02
   1.43904269e-01  4.90842968e-01 -2.58272849e-02 -4.18576002e-02
  -1.72621775e-02 -1.11667598e-02  1.77110219e-03 -4.18291949e-02
   2.75297254e-01  3.70223075e-02 -1.00149147e-01  5.22800256e-03
   2.62406114e-02  5.80516504e-03  2.45215654e-01  5.00229374e-02
  -5.97022176e-01  1.75709233e-01 -1.22587733e-01  1.55136548e-02
   4.00929563e-02 -2.67251972e-02 -2.61109263e-01  9.11332294e-02
   2.21148599e-02  7.05582201e-02 -3.68551910e-01 -4.58708294e-02
  -2.08220910e-02 -9.02947783e-03  8.78757425e-03  5.38770929e-02
   9.20847133e-02 -1.50754139e-01 -1.31674007e-01 -2.71538552e-02
   4.57366109e-02 -2.66484976e-01  1.01608913e-02 -9.06431451e-02
  -2.09454268e-01  2.04230428e-01 -5.38146123e-02  4.65280898e-02
   1.47419367e-02  3.86007614e-02 -5.79231754e-02  1.60436004e-01
  -6.19416088e-02 -6.02250434e-02  2.90378362e-01 -2.08712872e-02
  -1.72489919e-02  1.46159101e-02  2.05624029e-01 -7.14406371e-02
  -1.73061237e-01  2.20320262e-02 -2.17604980e-01 -1.25677846e-02
  -2.32441705e-02  3.71714830e-02 -2.86573358e-02  3.89466272e-03
   1.72477752e-01 -4.76026297e-01 -3.16644795e-02 -1.72174852e-02
  -2.82843714e-04  2.76205707e-02 -3.33568007e-02 -7.61367083e-02
  -1.80865359e-02 -3.94876208e-03 -1.83164388e-01 -1.00289613e-01
  -1.63227409e-01 -3.83855045e-01 -1.87595654e-03  1.30261825e-02
   2.40085319e-01  2.24980965e-01 -1.30864056e-02 -4.11070287e-02
   1.65765539e-01 -1.13105483e-01 -9.11285505e-02  4.25736159e-02
  -2.05643568e-02 -8.93302038e-02 -1.26052141e-01 -1.38180731e-02
  -2.42945001e-01  1.55866757e-01  1.21592790e-01 -1.34543270e-01
   2.72469640e-01 -1.12011388e-01 -3.65450233e-03  3.90554499e-03
   1.14383418e-02  1.54680267e-01 -6.32641762e-02  1.60485998e-01
  -4.21625823e-02 -1.80631522e-02  2.11999014e-01 -7.22460225e-02
  -5.31428307e-02 -8.63940865e-02 -3.20891850e-02  6.89519420e-02
  -1.23029768e-01 -1.11016080e-01  1.77124158e-01 -8.63385126e-02
   2.22367167e-01  3.14127713e-01 -9.59101468e-02  2.96121631e-02
  -3.97236720e-02  3.16656493e-02  2.71595567e-02  1.63940519e-01]
 [-2.25350130e-02 -8.12501647e-03  1.00528756e-02  5.67759089e-02
  -1.20237872e-01  6.04804605e-02 -3.60063799e-02 -2.21933294e-02
  -1.35516450e-02 -7.50210285e-02 -4.87390831e-02  2.51787920e-02
   5.38326465e-02  6.84187049e-03  1.31667163e-02  3.66360880e-03
  -7.67812058e-02 -1.00303609e-02 -4.71529327e-02  2.50510033e-02
   5.98377921e-02 -1.00246705e-01 -1.02449186e-01 -4.43052277e-02
  -5.02811931e-02 -6.82527795e-02  6.36181980e-03  1.14869624e-01
  -1.41281169e-02 -1.92341930e-03 -1.36642218e-01 -3.20023336e-02
  -9.96767581e-02  1.90632092e-03  2.86373161e-02  7.28379097e-03
  -1.53081743e-02  5.35779893e-02  1.11790178e-02 -4.45214808e-02
   2.93698937e-01  1.16277568e-01 -4.50317152e-02 -8.26591626e-02
   2.47800238e-02  5.61377890e-02 -9.16169304e-03 -6.36666268e-02
  -2.89468616e-02  2.95812339e-02 -1.42859537e-02  2.01700196e-01
  -1.16050225e-02 -6.24370575e-02  2.58475095e-02  4.12736349e-02
  -5.90048917e-02 -5.45266531e-02 -1.14564463e-01  1.08036483e-02
   1.43190533e-01 -1.51457284e-02 -1.77931711e-01 -1.23301744e-02
  -4.71728593e-02 -1.22453617e-02 -9.11628604e-02 -3.16107348e-02
  -5.27972952e-02  6.22825846e-02 -4.76771146e-02  1.22165754e-01
   4.79115639e-03 -1.43884616e-02  2.47742850e-02 -8.82688835e-02
  -3.34543996e-02 -3.18071619e-02  1.52921185e-01 -3.87405492e-02
  -9.27527919e-02  1.09250188e-01  2.69764587e-02 -1.87059585e-02
  -1.55228376e-02 -4.35546674e-02 -1.00088149e-01 -1.50226308e-02
   1.01245746e-01 -7.22371265e-02 -2.21741665e-02 -5.17180227e-02
  -8.54804143e-02 -4.71752584e-02  9.53989327e-02 -3.15395892e-02
  -1.58977151e-01  5.92315607e-02  3.39956046e-03 -1.16866171e-01
  -4.16095331e-02 -9.53736082e-02 -4.49722297e-02 -1.42799811e-02
  -6.93373233e-02  1.11976363e-01 -2.30480786e-02 -5.67008145e-02
  -5.27608916e-02  7.80645311e-02 -2.61499017e-01 -1.11925058e-01
   3.69032025e-02  9.67095271e-02  9.36060548e-02 -6.94867149e-02
   4.03470695e-02 -5.77065237e-02 -6.56487197e-02 -2.57987529e-02
   9.63230804e-02 -5.07022627e-02  9.13510621e-02 -1.60306264e-02
   1.91905573e-02  2.76588090e-02  9.87243839e-04  2.32825000e-02]
 [-5.84685326e-01  7.76814483e-03  2.91038454e-01  2.57903695e-01
   1.38140172e-01 -1.09043330e-01  2.43216883e-02 -4.04538102e-02
  -3.03817708e-02  9.74669755e-02  3.34614143e-02 -1.33873718e-02
   3.77699360e-02 -6.83244392e-02  1.95825726e-01  3.14634815e-02
   1.66090578e-01 -4.92306873e-02 -2.79518634e-01 -1.13954777e-02
   1.08024947e-01 -8.79950672e-02  8.16055015e-02  3.80503424e-02
   6.97835013e-02 -2.28590332e-02 -1.27128720e-01  4.18974273e-02
  -3.14168073e-02 -2.20518354e-02 -2.11964935e-01 -5.39276786e-02
  -1.70831084e-02  7.96654541e-03 -6.36168197e-02 -3.28968391e-02
   1.90247014e-01  6.96907053e-03 -4.56605442e-02  1.77753083e-02
   6.47380576e-02 -2.05667759e-03 -2.32158005e-02 -4.38603526e-03
   6.61021248e-02 -1.87254325e-02 -2.62293890e-02  1.47809684e-02
  -2.88722981e-02 -1.88461449e-02 -5.70063153e-03 -2.82287188e-02
   8.27748328e-02  2.62945760e-02 -7.25278109e-02  3.06339674e-02
   1.07656103e-02 -2.00242121e-02 -6.52303547e-02  3.20561200e-01
   7.56146908e-02 -1.41532654e-02 -2.29136343e-03  1.22589422e-02
  -2.88739130e-02 -1.95242912e-01 -3.81362855e-01  1.17047615e-02
  -4.58559930e-01  1.38525693e-02  4.52557430e-02 -1.72814727e-01
  -2.26798002e-02 -7.36073330e-02 -1.39448829e-02 -4.21747118e-02
  -2.77311131e-02 -3.37353274e-02  7.71011934e-02 -7.93642029e-02
  -3.20235580e-01  3.15844178e-01 -1.43887186e-02  9.02519561e-03
  -2.51925051e-01  8.55510086e-02  2.24859435e-02 -5.87942451e-02
   2.52072275e-01  9.31148008e-02 -3.96487080e-02  5.25069609e-03
   1.63224712e-01  1.45504521e-02  2.16099828e-01  3.20069604e-02
  -8.17495212e-02  1.68633480e-02  1.98618010e-01 -2.59592265e-01
  -2.45501801e-01 -3.41494709e-01 -4.20140773e-02 -3.93407829e-02
   7.08611822e-03  5.47110774e-02 -2.44187601e-02 -1.49950296e-01
  -5.54694012e-02 -1.14179455e-01 -4.82388049e-01 -2.89243579e-01
  -1.33460453e-02  5.72973639e-02  5.18829040e-02  3.70585807e-02
   1.91868052e-01 -5.18076532e-02  1.09384190e-02  2.05277335e-02
   3.55355740e-02 -9.58569571e-02  2.19574362e-01 -9.26005393e-02
  -4.04385552e-02 -1.56310312e-02  2.89869960e-02 -1.67505592e-01]
 [-8.88473541e-02 -6.17338307e-02  1.16095744e-01  3.08696538e-01
  -1.15626566e-01 -1.17186576e-01  4.01231088e-03 -4.45029289e-02
   1.76949948e-02  9.54871103e-02 -1.54671837e-02 -4.71666222e-03
  -9.74450707e-02  5.22551686e-03  7.51397237e-02 -4.60984185e-02
  -5.97171858e-02 -8.40916857e-02  4.28380072e-02 -2.77947336e-02
   1.07508777e-02  2.05998849e-02  9.81522501e-02 -2.76256911e-02
   3.40197943e-02 -5.32870851e-02  1.10513084e-01 -5.61576933e-02
   2.19689474e-01 -9.29440409e-02  2.63238937e-01 -2.64820252e-02
  -6.83799237e-02 -4.61171195e-02 -2.49998253e-02 -7.86302090e-02
  -2.62185693e-01  7.03477636e-02  8.76621902e-02  2.12286096e-02
  -1.53584033e-01  8.45878269e-04  1.64635794e-03  6.86580241e-02
   1.19546369e-01  1.64850801e-01 -4.27526571e-02  2.95451703e-03
  -2.94803008e-02 -5.51602319e-02 -4.18386497e-02 -1.20600365e-01
   3.59020308e-02 -4.36677486e-02 -3.39753106e-02  3.34698334e-02
  -2.22480879e-03 -4.70150858e-02  9.01471153e-02 -1.53942540e-01
  -1.14998177e-01 -2.11997870e-02  4.88844439e-02  8.78070965e-02
   9.86404791e-02 -1.33514822e-01  3.14678431e-01  2.92160250e-02
   7.38273710e-02 -1.64138764e-01  4.52134684e-02  6.82637142e-03
  -2.01659035e-02 -1.03587992e-02  3.04741021e-02 -3.56378742e-02
  -6.13223054e-02 -4.13303375e-02 -9.06992331e-03  2.64241220e-03
   4.22156341e-02 -1.82148460e-02 -1.21802883e-02  2.13958956e-02
   1.05287239e-01  1.35819493e-02 -5.75694591e-02 -5.93718253e-02
   1.45486057e-01  1.65606752e-01 -5.47079220e-02 -9.65403579e-03
   1.22349553e-01 -3.11139971e-02 -2.52910014e-02 -3.46823270e-03
   1.97261855e-01 -1.61068439e-01  5.92231527e-02  2.08034024e-01
  -3.76637839e-02  1.06423452e-01 -6.39649574e-03 -5.28029613e-02
  -5.97864389e-02  7.65386224e-02 -5.43160252e-02 -2.09681571e-01
  -2.45888550e-02  9.32559893e-02  1.95423756e-02  3.66333574e-02
  -1.87823363e-02  6.02180650e-03 -1.28099710e-01  6.34807423e-02
   1.17164347e-02 -6.92696348e-02  7.77471066e-02 -6.74543008e-02
  -1.85324907e-01 -8.42129067e-02 -1.12915374e-01 -1.30454246e-02
  -2.86588259e-03 -6.77410141e-02 -9.22226813e-03 -8.70496314e-03]
 [ 1.66530758e-01 -5.49207032e-02  2.27715909e-01  1.23736300e-01
  -1.79740861e-01 -1.47587240e-01  1.89025700e-02 -1.31733688e-02
  -3.43559822e-03 -2.02247538e-02 -6.07099198e-02  2.50558350e-02
   1.03426792e-01 -4.55199108e-02 -6.01854082e-03 -1.74973458e-02
   1.12488315e-01 -5.31126298e-02 -8.41364861e-02 -9.69534181e-03
  -1.94573849e-01 -4.06776592e-02 -1.18690103e-01 -6.00844100e-02
  -3.03512681e-02 -3.97671610e-02  5.78261167e-02 -2.88037300e-01
   1.30667791e-01  3.18918116e-02  7.42115155e-02 -3.21343876e-02
   6.44014403e-02 -8.64780918e-02 -5.26095554e-02  2.35200338e-02
   1.10660367e-01  3.71448368e-01  1.63974971e-01 -4.35793176e-02
  -2.73523033e-01  1.12956047e-01 -4.07780297e-02 -2.74375174e-02
   1.91297829e-01  2.38436997e-01  3.22453342e-02  2.79857367e-02
  -1.62961036e-02 -5.22817336e-02  2.50832159e-02  1.23812295e-01
  -2.15736050e-02  4.03589457e-02 -3.83848250e-02  5.39620686e-03
   3.46056670e-02  1.96481664e-02  2.67764360e-01 -6.86720610e-02
   3.29159975e-01 -9.97278765e-02 -3.41510493e-03 -5.91047145e-02
  -4.40618284e-02 -2.67602429e-02  5.22905663e-02 -6.07896373e-02
   1.40577108e-01 -1.36876687e-01  2.28476487e-02 -2.40596965e-01
   3.50009426e-02 -3.92597727e-02  1.24183923e-01 -2.34088078e-02
  -1.24060614e-02  5.89161403e-02  3.83249074e-02 -8.18383396e-02
   1.51315764e-01 -1.32013515e-01 -6.04953989e-02 -8.02441388e-02
  -1.32394731e-01  4.29467782e-02 -6.81575239e-02  2.42768824e-02
   1.69924080e-01 -9.99114942e-03 -6.32496029e-02 -1.49151497e-02
   1.34951130e-01 -2.00309549e-02  7.03261495e-02 -6.35862816e-03
   2.62923956e-01  1.82026431e-01  1.87923729e-01 -6.41253963e-02
   6.17698133e-02 -1.12449430e-01  4.39926535e-02 -2.32798941e-02
   1.68495327e-02 -2.60184687e-02 -3.68076973e-02 -8.24838057e-02
   4.72278073e-02 -2.37145331e-02  4.44556167e-03  1.04549348e-01
  -2.83383895e-02  1.97175339e-01 -1.13870069e-01 -4.41119745e-02
  -5.96208647e-02 -1.26468793e-01 -4.11618315e-02 -5.64904548e-02
  -2.61802766e-02  2.11545974e-01 -4.30968404e-03  5.49113303e-02
  -1.40346736e-02  4.58416715e-02  2.76383813e-02  2.92128548e-02]
 [ 3.22596490e-01 -3.23247351e-02  2.15093151e-01  2.94489413e-01
   8.21098611e-02  8.38169158e-02  2.52433531e-02  1.70388573e-03
   2.14132555e-02  1.19695358e-01  6.19808137e-02 -1.19056460e-02
  -2.14813113e-01 -1.20063936e-02 -9.50997248e-02 -5.47046773e-02
  -8.78526568e-02 -2.11519338e-02 -3.14317411e-03 -5.61384298e-02
   2.85692513e-01  7.41543174e-02  4.78658862e-02 -3.83513346e-02
   2.49295056e-01  3.50538790e-02  3.31100710e-02  3.95903364e-02
  -1.92145541e-01 -2.55516529e-01  8.70437473e-02 -6.43311366e-02
  -3.39432955e-02 -2.71482300e-02  2.87447218e-02 -7.10819811e-02
   3.94479007e-01 -1.89005494e-01 -1.47511795e-01 -2.74381749e-02
  -2.19890505e-01  8.83256420e-02 -6.94410652e-02  9.51831695e-03
  -6.22304440e-01  3.40139955e-01 -1.48591325e-02 -5.63161410e-02
   4.22608033e-02 -4.92043272e-02  1.80363841e-02 -2.95755625e-01
   8.91396850e-02 -3.54251415e-02 -2.96903342e-01  5.99177517e-02
   2.30771303e-02  1.90973040e-02 -2.31077857e-02  5.25994778e-01
  -5.99684954e-01 -6.74752519e-02 -1.52084436e-02  6.43684119e-02
  -7.63686895e-02  4.24348354e-01 -2.43652999e-01 -4.16259393e-02
  -5.64152151e-02  1.68154344e-01 -4.60607670e-02 -6.51036622e-03
  -7.06414655e-02  1.25293359e-02  4.23165038e-02  3.76680791e-02
   1.62937213e-02  4.32752557e-02 -1.49662882e-01 -1.22688375e-01
  -2.71911949e-01  1.03745230e-01 -3.11058592e-02 -2.74936892e-02
   3.73114109e-01 -3.93430263e-01  9.02282726e-03  3.62230930e-03
  -3.82334352e-01 -2.36815169e-01 -5.18997163e-02 -2.81728692e-02
   4.45750396e-04 -6.27195388e-02 -4.08812724e-02 -3.95441279e-02
   4.19377983e-01  1.79319546e-01  1.13089927e-01 -8.52951765e-01
  -1.50224734e-02 -2.36035123e-01  1.85683295e-02  5.30600199e-04
   5.28259128e-02 -4.51665878e-01 -3.48085277e-02  2.20612675e-01
  -5.20254150e-02 -3.00548315e-01  1.17005222e-03 -9.55403671e-02
   1.29121756e-02  3.72034967e-01  3.94461244e-01  3.55554000e-02
  -8.90163928e-02 -2.99735337e-01  3.10298115e-01 -5.04989512e-02
  -6.16487209e-03 -2.16545314e-01  6.03764176e-01  7.93364644e-03
   1.81248710e-02  2.05480065e-02  2.62963548e-02 -3.08043778e-01]
 [ 2.60197073e-01  3.77390021e-03  1.43596288e-02 -1.00930959e-01
   1.10057350e-02  2.45212406e-01 -4.62159514e-02  1.06861312e-02
   3.99107784e-02  4.91109453e-02  3.42705324e-02 -4.60347980e-02
   1.33495823e-01  2.89825164e-02 -8.91877338e-02 -5.68070486e-02
  -2.85735309e-01 -2.18466520e-02 -1.68924481e-01 -5.76120801e-02
   1.13585711e-01  3.94359767e-01  2.98442207e-02  3.01868878e-02
   4.17346656e-02 -5.77449240e-03 -1.03389971e-01 -7.40955472e-02
   2.90373802e-01  3.21415905e-03  5.85586876e-02 -4.27352674e-02
  -8.35106149e-02 -5.63889183e-02 -9.95946466e-05 -2.00636033e-02
  -1.37710003e-02  1.62936568e-01  1.33991390e-01  4.71567251e-02
  -2.14877188e-01 -1.91214636e-01 -2.11794358e-02  2.07150001e-02
  -1.10295713e-01  5.32702692e-02  2.95860842e-02 -4.16952483e-02
   3.59804593e-02  2.42811795e-02 -5.43975160e-02  9.68229100e-02
  -6.30339757e-02 -6.39783638e-03 -1.88078105e-01 -5.35788722e-02
   2.92588789e-02 -2.77139880e-02  1.84970140e-01 -1.71352535e-01
  -1.55520871e-01 -6.86016828e-02  1.37507366e-02 -1.62777483e-01
  -6.33900240e-03 -4.49593551e-02 -4.83492799e-02  5.56180673e-03
   5.21848574e-02 -4.30991352e-01  2.91065983e-02  5.68143725e-02
   1.43823503e-02 -2.62602568e-02  1.93870977e-01 -1.06870346e-01
  -8.76615494e-02  3.19956578e-02 -1.02766864e-01 -1.00485301e-02
  -3.77180308e-01 -3.64347138e-02 -1.29656475e-02 -2.98061017e-02
   2.64019012e-01  3.88239659e-02 -3.80200557e-02 -2.08778419e-02
  -3.74203026e-02 -6.55875579e-02 -4.85196384e-03 -3.56885679e-02
  -9.20018330e-02  3.64683680e-02 -1.04397289e-01  1.57348327e-02
  -3.55514884e-01 -3.19253355e-02  2.16587707e-02 -2.89900061e-02
   2.43910700e-01 -1.05088456e-02  4.79385071e-02  2.86777411e-02
  -6.43703416e-02  4.73011956e-02  1.36897787e-02  6.16103224e-02
   1.60448011e-02 -1.79188460e-01 -7.35501423e-02  1.92626685e-01
  -4.97887395e-02 -9.88444313e-02 -2.07188919e-01 -3.86738814e-02
  -7.01795816e-02 -1.35432273e-01  1.53952846e-02 -1.60265006e-02
   2.52214000e-02  1.49782836e-01 -2.03665584e-01 -5.51022915e-03
  -3.97679806e-02  9.66001861e-03 -1.03530660e-02 -1.13683417e-01]
 [ 1.22112028e-01 -6.06003776e-02 -1.05810717e-01 -2.94887237e-02
   5.93823148e-03 -6.67066919e-03 -3.65579464e-02 -4.59961779e-02
  -6.78031147e-02 -6.81534186e-02 -1.96031183e-02  1.12555856e-02
   7.53965974e-02 -4.33288515e-03 -1.20803062e-02 -4.00498584e-02
  -9.80051607e-02 -5.98363094e-02 -7.16665899e-03 -2.89834272e-02
   1.52304107e-02 -4.20460291e-02 -1.19080059e-01 -4.97508682e-02
   4.51000445e-02  3.82082053e-02  8.31517354e-02  3.51507962e-02
   8.90889764e-03  2.66410131e-02 -7.03596175e-02  1.67867187e-02
  -1.28494157e-03 -1.50027843e-02  5.71349822e-02 -8.90690163e-02
  -8.22640285e-02 -3.36774066e-02  3.54284421e-02 -2.53917668e-02
   1.13004863e-01 -8.16661399e-03  5.52011579e-02 -3.62635851e-02
   9.59403664e-02 -8.14306829e-03 -6.50049224e-02 -3.17948908e-02
  -5.43787517e-03 -7.29104653e-02  2.34358013e-02  4.75023091e-02
  -2.33367942e-02 -4.94081117e-02  5.25224321e-02 -9.26322564e-02
  -1.46182198e-02 -4.98395562e-02  1.77824069e-02  7.97831547e-03
   1.34418577e-01  1.15414802e-02 -2.54032403e-01 -3.55572626e-02
  -5.94625734e-02 -7.82812387e-02  1.59027204e-02  1.15616741e-02
   1.05701219e-02 -4.67177778e-02 -5.62313572e-02  9.58281234e-02
  -9.01350826e-02 -4.76038419e-02 -3.64126787e-02 -5.92754111e-02
  -9.38896760e-02 -1.10650189e-01  1.00648299e-01 -4.22840975e-02
   2.94968821e-02  7.35299215e-02  1.22903874e-02 -5.40208258e-02
  -3.11853271e-02 -1.16191907e-02 -1.20253399e-01 -2.65812725e-02
   8.74335393e-02 -1.19171366e-02 -5.79227693e-02 -4.58668210e-02
  -1.23986304e-01 -5.50820902e-02 -7.92322308e-03 -2.55578440e-02
  -1.71287447e-01 -5.36489449e-02  1.11199379e-01 -4.19663079e-02
   1.01815145e-02 -1.32336810e-01 -1.64049380e-02  7.66274228e-04
   1.07901646e-02  9.79094356e-02  1.06054666e-02 -7.65044391e-02
  -5.75581864e-02  9.66786146e-02 -6.57053515e-02  1.07238023e-02
   3.03595848e-02 -1.86550096e-02 -9.94233564e-02 -4.62102629e-02
  -4.14138474e-02  3.99370715e-02 -3.84166688e-02 -3.99094867e-03
   1.02071524e-01 -8.84245262e-02  8.95563811e-02 -7.36525794e-03
   2.64611244e-02  5.26500959e-03 -5.70990741e-02  5.47238961e-02]
 [-3.92711133e-01  1.54278185e-02 -1.51199341e-01 -2.92796373e-01
   3.25935408e-02 -2.67771054e-02 -2.00754460e-02 -7.79556227e-04
   1.75339878e-02  2.10255291e-02  2.38749310e-02  4.68584374e-02
   1.25962973e-01  5.22884093e-02  6.97786361e-02  1.22807370e-02
  -5.33628426e-02  4.76573482e-02  1.64900064e-01 -8.18470940e-02
   8.15030001e-03 -7.63942078e-02 -3.67581844e-02  2.73797959e-02
  -7.29295239e-02  4.77684624e-02  1.88194573e-01 -1.24125786e-01
   2.14311972e-01  2.17087328e-01  2.56983459e-01  4.21098620e-03
   2.13679634e-02 -5.23697920e-02 -8.35811533e-03 -4.99369465e-02
   1.32640570e-01  8.25243592e-02  1.59177810e-01 -8.35307688e-03
  -2.29749396e-01 -1.22874737e-01 -4.73381504e-02 -8.12720321e-03
   1.28016785e-01 -1.49591371e-01 -2.71578357e-02  4.68204990e-02
   5.74321207e-03 -7.70808533e-02  3.03619262e-02  3.14016789e-02
   4.25748900e-03  3.29522975e-02 -3.15177470e-01 -1.31387413e-02
   5.34694418e-02  3.37429009e-02 -1.21183479e-02 -2.25777715e-01
  -1.75334122e-02 -3.24582383e-02  5.27456403e-02 -3.60540040e-02
  -8.36054832e-02 -7.60737434e-02 -1.76578596e-01  2.05572490e-02
   9.30727646e-02  2.66504698e-02 -5.96097624e-03  1.98420197e-01
  -2.73997225e-02 -3.18103731e-02  2.04700261e-01  1.51319765e-02
   3.57229076e-02 -2.32767146e-02  8.79057050e-02 -5.18264994e-02
  -1.71309650e-01 -1.46374851e-01 -1.31210051e-02  3.89407203e-02
  -3.40874851e-01 -1.35692656e-01 -1.26349851e-02  3.60646993e-02
  -1.74061686e-01  6.45776689e-02 -3.44231017e-02 -2.24343333e-02
  -1.02224514e-01 -8.45736414e-02  5.60974181e-02  5.02488986e-02
   1.99696213e-01 -1.32818282e-01  1.24099590e-01 -2.59653956e-01
  -2.53211528e-01 -9.84488204e-02  6.30879104e-02  1.60035528e-02
  -3.30847315e-03 -1.78372592e-01 -4.48194146e-02 -4.06369753e-02
   1.77712943e-02 -6.03253543e-02 -2.55612493e-01 -2.78449059e-01
   3.71042988e-03 -1.48945209e-02 -2.14033108e-02  7.63908774e-02
   1.17365293e-01 -1.39486015e-01 -2.99499976e-03  5.82083613e-02
  -1.80715293e-01 -1.56233549e-01  7.28618875e-02 -4.30630147e-02
   4.48448062e-02  5.18059395e-02 -1.91902556e-02  4.65168618e-02]
 [-1.16850175e-01  8.04114901e-03 -4.86218929e-02  2.13038638e-01
   1.22808956e-01 -1.57182947e-01  1.42034879e-02 -2.61684544e-02
  -2.52524950e-02 -4.77845222e-02  3.97563800e-02 -6.09336048e-02
   1.77753344e-01 -1.94534417e-02 -1.45515823e-03  2.19802819e-02
   2.17188954e-01  8.68031569e-03 -3.28368753e-01 -1.11650517e-02
  -6.49920106e-02  5.16263843e-02 -4.24487479e-02 -6.34478480e-02
  -4.91942354e-02 -5.66912480e-02  6.06562980e-02 -7.66688259e-03
  -2.77376443e-01 -2.71641642e-01  3.11568081e-01 -9.46283266e-02
  -2.33853702e-02 -6.05215244e-02 -7.76977688e-02  1.52313802e-02
   6.60718903e-02  3.97133455e-02  8.00446980e-03 -8.24463814e-02
  -6.03025079e-01 -4.86473367e-02 -2.94571258e-02  3.86269279e-02
  -2.66249418e-01  1.35540545e-01 -5.27233966e-02 -5.76890223e-02
   3.60024236e-02 -4.05274332e-04 -6.05136454e-02  1.18092313e-01
  -5.16393408e-02  5.31289726e-02 -4.41089332e-01  2.31469832e-02
  -1.78504810e-02 -7.30174705e-02  1.00667616e-02 -1.82658345e-01
  -1.90865383e-01 -3.15050967e-02 -1.53574765e-01  2.98303645e-02
   2.21187659e-02 -1.30358100e-01 -6.16088808e-02  5.05019166e-02
   1.05279982e-01 -1.20898932e-01 -8.75493512e-04  1.87766384e-02
  -2.68530846e-02  4.85426486e-02  2.00026587e-01  3.79068740e-02
  -1.10090878e-02 -8.01978409e-02 -6.10288866e-02 -9.54925418e-02
   8.20389425e-04 -8.66443571e-03  3.83796357e-02 -4.02139537e-02
   1.16639748e-01  2.16351643e-01 -8.54418799e-02 -5.47421910e-03
   1.10724404e-01  1.67923525e-01 -4.88667563e-02 -8.09832439e-02
   7.32327551e-02 -9.40443948e-03 -1.19094439e-01  4.41916808e-02
   2.16133177e-01 -2.92079244e-02  3.32665369e-02  4.38275076e-02
  -2.79253960e-01  2.40443587e-01 -5.03424071e-02 -9.62866005e-03
  -1.11663118e-02 -1.65979818e-01 -4.19318751e-02  4.36501652e-02
  -6.91264048e-02 -3.40811498e-02  1.05639137e-02 -3.24234106e-02
  -6.76460192e-02 -1.07462242e-01  9.57993418e-02 -8.03523883e-02
   4.13164049e-02 -3.58744919e-01  2.30265439e-01 -2.97125932e-02
  -5.91758311e-01  9.63098705e-02  1.65370658e-01 -1.80085264e-02
  -1.11149000e-02  1.24482648e-03 -7.18938485e-02  1.86609611e-01]
 [ 1.27446383e-01  5.08249504e-04 -1.56795919e-01  1.26370769e-02
   2.75745355e-02 -2.87505329e-01 -7.14997649e-02  2.92491913e-02
  -1.14457626e-02 -4.53958400e-02 -1.56240053e-02  8.54180101e-03
   1.47764720e-02 -2.62231175e-02  1.51665032e-01  2.15656180e-02
   1.86777085e-01 -9.31766778e-02 -4.25613552e-01 -1.32292630e-02
  -9.55703482e-02 -4.37956601e-02 -3.18302289e-02 -1.93499848e-02
   5.77128958e-03 -6.34207204e-02  6.83165714e-02 -1.73517928e-01
  -9.67860296e-02  1.49629027e-01 -2.20084023e-02 -4.32038028e-03
   9.11031105e-03  6.94667026e-02  1.01900427e-02 -3.74407209e-02
   1.77291602e-01 -7.39737153e-02 -8.78260750e-03 -5.43427281e-02
  -5.64419866e-01  2.20238626e-01 -4.76761498e-02 -1.06114343e-01
   5.14992140e-02 -3.90422307e-02 -2.88658570e-02 -2.00229529e-02
  -5.87049797e-02 -6.05011955e-02  1.98606704e-03 -9.37609747e-02
  -5.36842905e-02 -4.77971360e-02 -1.85552642e-01 -3.83014753e-02
  -2.67089270e-02  2.05029100e-02  2.64381450e-02  1.45709701e-02
  -3.19004148e-01 -2.80870926e-02  2.80095898e-02 -5.00621721e-02
   3.29407789e-02  3.13506275e-03  1.50156826e-01  4.42384221e-02
   8.29833820e-02 -1.43048167e-01  2.51059029e-02 -7.65651092e-02
  -2.05491334e-02  1.71434451e-02 -5.58764935e-02 -3.67289297e-02
   2.88964361e-02 -7.75541812e-02  3.50174345e-02 -1.81780383e-02
  -1.57273948e-01 -1.96793601e-01 -1.53637296e-02 -3.54854167e-02
  -1.38156684e-02  5.92860281e-02  1.18089635e-02 -4.98121381e-02
   1.29531920e-01 -1.32227559e-02 -3.61001980e-03  1.20236492e-02
   7.57256523e-02  8.46614018e-02  1.50961548e-01 -5.48401885e-02
  -1.19442046e-01 -2.40216389e-01  7.90067539e-02  1.36662617e-01
  -1.61385775e-01 -1.41865283e-01 -6.51796609e-02 -4.51514795e-02
  -5.92098236e-02  1.09618150e-01  3.69252227e-02  1.40003473e-01
  -4.27523814e-02  4.15967926e-02 -1.51298583e-01 -4.81575429e-02
   2.46896446e-02  5.30113606e-03 -4.76136655e-02 -8.22380707e-02
   1.79654453e-02 -3.89990956e-01  1.03987888e-01 -2.81752311e-02
  -3.16345274e-01  1.80980980e-01 -2.39530616e-02 -2.24104486e-02
  -2.95745209e-02 -3.72113623e-02 -3.08181345e-03  6.04396313e-02]
 [ 3.12269121e-01 -4.25425917e-02  1.52554065e-01  1.56480759e-01
  -3.20054740e-02 -2.91197784e-02  2.39571128e-02 -4.80979308e-03
  -6.01864606e-02 -5.01327850e-02 -6.51499406e-02 -2.45334599e-02
   2.55080201e-02 -3.76333073e-02 -8.52988958e-02 -2.77923904e-02
   3.67613584e-02 -2.28028297e-02 -1.26926601e-01  1.41863013e-02
   2.73357928e-01 -1.72824115e-01 -5.34736589e-02  5.02783582e-02
   1.36294633e-01  1.99706387e-02 -4.71430302e-01 -5.20764589e-02
  -3.31989266e-02 -1.19128041e-01  9.33043361e-02  5.67553332e-03
  -6.73692208e-03  3.02234571e-02 -1.65226683e-02 -9.32462960e-02
   2.82952935e-01 -2.04040661e-01  4.36850116e-02  4.49232049e-02
   1.32455572e-01  1.34734120e-02 -1.37930010e-02 -5.11936378e-03
  -1.81106791e-01  2.22486556e-01 -5.15607139e-03 -2.79336050e-02
  -7.51277208e-02 -1.00497052e-03 -2.49866955e-02 -1.67367935e-01
  -3.64856571e-02 -3.32622081e-02 -8.62370804e-02 -2.92332917e-02
   4.96172756e-02 -4.14647534e-02  9.96542349e-02  1.59885243e-01
  -3.58063906e-01  4.75320593e-02 -4.80884910e-02  2.56109498e-02
  -1.19829681e-02  2.08545297e-01 -1.98143333e-01 -3.66960466e-02
  -4.12883423e-02 -7.81482235e-02 -5.79863824e-02  2.49675632e-01
  -3.75445606e-03 -8.35392997e-03  5.43308146e-02 -5.77855073e-02
   4.50430922e-02  1.98574420e-02 -1.73675090e-01 -8.11294615e-02
  -1.26186833e-01  9.42428932e-02 -3.25603932e-02  2.26033460e-02
   2.80348778e-01 -1.14440650e-01 -5.90204820e-02  2.77603064e-02
  -1.25088960e-01  4.36150096e-02 -5.22442535e-02  1.97747275e-02
  -9.23808962e-02 -5.98240271e-02  9.06925052e-02 -5.66082597e-02
  -2.69703984e-01  1.86222583e-01  2.87667692e-01 -6.37616575e-01
   4.27768022e-01 -2.64724225e-01 -2.51820330e-02 -6.54727072e-02
   4.85264929e-03 -1.78972587e-01 -5.01351058e-02  1.97133318e-01
   1.89245926e-04 -2.35123515e-01 -5.81866316e-02 -1.95068374e-01
   3.41304839e-02  3.99642400e-02  2.83092529e-01  1.18956201e-01
   2.83074677e-02 -1.50978997e-01  2.49736339e-01  4.62497352e-03
   8.04034248e-02 -5.78246787e-02  2.92162001e-01 -2.41467673e-02
   6.18516421e-03 -2.50975136e-02  7.07375910e-03 -9.00642872e-02]
 [ 1.03865050e-01  3.64990942e-02 -2.59512290e-02 -2.72602767e-01
  -1.26317432e-02  2.45765954e-01 -5.46964332e-02  2.85598394e-02
   4.93789315e-02 -1.60439685e-02  4.95578013e-02 -6.65428415e-02
   1.84381921e-02  4.84000612e-03 -1.38894439e-01 -6.87952414e-02
  -9.98741165e-02 -6.97698817e-02  8.32814798e-02  6.92705289e-02
  -3.12629044e-01  3.22084785e-01 -3.37068707e-01  2.14632191e-02
  -1.56582937e-01  1.98200550e-02  5.05799837e-02 -9.86906216e-02
   2.31229737e-01  4.62167524e-02 -2.09087774e-01  1.55349523e-02
  -3.08384243e-02 -6.39268458e-02  1.19367847e-02 -1.26263918e-02
   1.69221148e-01  1.48933634e-01 -1.12250283e-01  5.14863320e-02
  -1.69325978e-01  1.41936149e-02 -3.81264240e-02  1.25827985e-02
  -1.68533057e-01 -1.39828444e-01  4.96754597e-04  6.87779952e-03
  -5.53406477e-02 -5.57532310e-02 -1.26597816e-02  2.51710843e-02
  -4.74623516e-02 -5.16822971e-02 -1.94822922e-01 -7.33932182e-02
   1.90629307e-02 -5.00462018e-02  1.60240263e-01 -4.53803450e-01
  -2.16169909e-01  4.28330638e-02 -9.63242948e-02 -3.29623111e-02
  -7.81592354e-03 -1.67439446e-01  7.28534237e-02 -1.05293849e-02
   2.17551682e-02 -5.11438310e-01 -2.81614754e-02 -6.72626644e-02
   3.08722779e-02  2.40239520e-02 -2.88789868e-01 -6.06758185e-02
  -8.02166536e-02  1.60245169e-02 -4.36699539e-01 -1.67573299e-02
   7.94606805e-02 -6.70830980e-02 -3.44633497e-02 -8.96866340e-03
   4.78434898e-02 -3.94691601e-02 -8.09428170e-02 -5.57693504e-02
  -1.24863744e-01  5.39569650e-03 -3.29488032e-02 -8.95451847e-03
  -1.97751492e-01 -4.29177284e-02 -2.05554843e-01 -4.24328372e-02
   1.24798581e-01  2.31852666e-01  5.61432466e-02 -1.85537696e-01
   3.57117578e-02  7.55699798e-02  2.41386816e-02 -6.38359040e-02
  -2.93041524e-02  1.31302580e-01 -4.04289812e-02  1.22957967e-01
   3.67975049e-02 -2.68978864e-01 -1.26033940e-03  5.64783774e-02
  -4.55076583e-02 -1.17882483e-01 -6.27393648e-02  2.17774268e-02
  -2.47523651e-01 -3.79965752e-01  1.24666639e-01 -9.10124853e-02
  -7.57989567e-03 -6.13284633e-02  7.11422712e-02  1.95274092e-02
   1.68753155e-02 -3.35784629e-02 -3.73565853e-02 -2.83053607e-01]
 [ 4.66447789e-03  2.12094709e-02 -5.40379025e-02 -5.84420115e-02
  -1.33215293e-01 -7.88739771e-02  7.96747953e-03  2.28079082e-03
   1.13447038e-02 -3.01803537e-02 -4.95253839e-02  3.59092616e-02
  -2.78161764e-02 -8.61001946e-03 -6.78987503e-02 -6.08754195e-02
   2.48244061e-04 -6.94341213e-02  1.97094213e-02 -2.55660862e-02
   8.71039554e-03  1.29914738e-03 -2.27336705e-01 -3.53133306e-02
   6.78977072e-02  5.54525352e-04  3.72641832e-02  4.38813865e-02
   1.93328261e-02 -8.67456477e-03  3.67697962e-02 -1.19930441e-02
  -7.27691129e-02 -5.92343770e-02  2.20185257e-02 -1.62763484e-02
  -1.49351940e-01  4.22421657e-02  8.94168485e-03 -1.88055057e-02
   7.94021487e-02  2.49045417e-02  3.95293199e-02 -7.29748532e-02
   4.02038135e-02  1.43871885e-02 -6.84423447e-02 -2.46818922e-02
   1.66514795e-02 -4.15690504e-02 -7.83745199e-02  1.41022326e-02
  -7.68053085e-02 -3.29547152e-02  8.51512253e-02 -1.60017237e-02
  -2.99332291e-02  2.00111102e-02 -4.29226272e-02 -4.28735912e-02
   4.95001227e-02 -6.89743087e-02 -1.03993863e-01 -8.87157395e-02
  -6.25484288e-02 -7.21831098e-02  1.90053079e-02  2.86627617e-02
   4.47981916e-02  2.21680701e-02  1.18516097e-02  7.72427395e-02
   3.55814560e-03 -1.84605587e-02  3.08752172e-02 -1.13130651e-01
   1.07867531e-02 -4.97003738e-03  1.03565715e-01 -2.97067706e-02
  -3.81899700e-02  1.31405070e-01 -4.46949936e-02 -3.80992256e-02
   2.80802231e-02  3.73907164e-02 -8.67800321e-03 -7.70582259e-02
   1.19627692e-01  3.87638621e-02 -2.88600884e-02 -5.49475849e-02
  -9.13672596e-02 -2.73619350e-02 -5.87436080e-05 -7.77323842e-02
  -1.64047912e-01 -6.04675971e-02  4.13217098e-02 -1.30913168e-01
   7.69805834e-02  2.35431083e-03  2.78437752e-02 -1.59078110e-02
  -7.14247748e-02  5.97632453e-02  3.84792360e-03 -4.39229570e-02
  -7.78712109e-02  3.62378582e-02 -2.06342399e-01 -1.84550390e-01
  -6.78872094e-02  1.99402981e-02 -1.12270810e-01  8.64277333e-02
  -5.87890223e-02 -2.66783349e-02 -2.65610591e-02 -8.12238082e-02
   3.32341976e-02 -2.31092423e-02  1.85982734e-01  1.11691030e-02
  -7.16948286e-02  2.62350608e-02 -5.71306609e-02  6.30603870e-03]
 [ 4.83247936e-02  6.16222806e-03  1.01156533e-03 -1.78960413e-01
   9.15594846e-02  2.40544975e-01 -7.09629729e-02  4.89543751e-03
   4.26218286e-02  3.47561464e-02  3.13255526e-02  2.60999743e-02
   2.04065025e-01  1.93671118e-02  1.79819539e-01  4.62287292e-02
   8.78269672e-02  3.80754210e-02  2.56825596e-01 -3.69472019e-02
  -1.18806809e-01  4.04456966e-02  1.81454092e-01 -2.81028580e-02
   3.61448377e-02 -1.52744558e-02  8.14946964e-02  3.24644782e-02
  -1.86337857e-03  1.51800200e-01  8.88442025e-02  1.80812906e-02
   3.10048554e-02 -2.60024462e-02 -7.20062181e-02  5.62630640e-03
   6.56623468e-02  1.76615715e-01 -7.82896206e-03  2.35375715e-03
  -1.43608809e-01 -7.04404488e-02 -2.25622300e-03 -4.12512664e-03
   7.96801820e-02  1.02691308e-01  2.63072662e-02  5.01896627e-02
  -4.35890164e-03  2.41707340e-02 -3.78204025e-02  2.60375589e-01
   1.11668855e-01  4.44939435e-02 -1.48937538e-01 -4.08323519e-02
  -1.14622312e-02 -3.20293911e-05  1.88546300e-01  6.64245188e-02
  -1.11670757e-03 -2.58899163e-02  4.12458628e-02  1.65425632e-02
   1.12859150e-02  5.79704642e-02 -7.13036135e-02 -1.30656529e-02
   3.02192450e-01  1.49416596e-01 -2.84382459e-02  7.78417811e-02
  -6.07816242e-02 -1.46879312e-02  1.90177187e-01  7.69116580e-02
  -5.65987304e-02  1.59335658e-02 -2.68342216e-02  8.76896679e-02
  -1.07657738e-01 -6.38346598e-02 -5.66940904e-02  5.85583188e-02
  -3.51722300e-01 -8.57035688e-04 -3.89567465e-02 -5.09614907e-02
   4.45676893e-02 -6.93946630e-02 -4.37311567e-02  5.63998939e-03
   1.04353400e-02 -5.11111096e-02 -6.38199523e-02  3.34903947e-03
   1.55206874e-01 -5.41966483e-02  3.62441003e-01  1.45042315e-01
  -2.67182589e-01 -2.31794510e-02  3.49523835e-02 -7.72186462e-03
  -1.89499371e-02 -3.37312251e-01 -2.04923395e-02  3.79064046e-02
  -2.91415695e-02 -2.15461701e-01  6.32344633e-02 -1.18272617e-01
  -3.04575507e-02  2.27059469e-01  1.14750914e-01 -4.99078073e-03
   2.14824066e-01 -2.33589366e-01 -1.08800180e-01 -4.94643487e-02
  -1.26887232e-01 -8.99148211e-02  2.39526644e-01 -8.57857093e-02
  -3.48889679e-02  3.41265835e-02  1.21205989e-02  5.91479503e-02]
 [-1.06191345e-01 -1.55491699e-02  2.49573946e-01  2.44628295e-01
   6.50913268e-03 -7.15931430e-02 -8.81126598e-02 -6.72844425e-02
  -6.69551641e-02  2.36386776e-01 -6.05303124e-02  1.94625501e-02
   1.98714629e-01  2.05309428e-02 -1.43076450e-01 -1.25379097e-02
   2.50136890e-02 -2.15688702e-02 -1.54185832e-01 -7.77756572e-02
   1.32723346e-01  6.90723136e-02  4.02506478e-02  1.61133446e-02
  -6.39519915e-02 -1.07604768e-02 -9.32740420e-02  5.69755360e-02
   2.36159831e-01  9.93633345e-02  2.33812883e-01 -1.51262563e-02
  -1.58952922e-03 -5.75460307e-02 -4.67285104e-02  2.73945387e-02
   9.25514698e-02  3.07575822e-01  7.87725765e-03 -5.99763356e-02
  -2.73055881e-01  6.51407568e-03 -2.63777077e-02 -2.89606024e-02
   1.47055000e-01 -3.74814719e-02 -8.16785544e-02  4.06727754e-02
   4.16159257e-02  1.04616480e-02 -2.79072486e-02  1.14604011e-01
   9.42347050e-02  3.42461504e-02 -2.46037886e-01  1.87939070e-02
  -4.09868360e-02 -4.55294438e-02  1.11682070e-02 -5.92049211e-02
  -4.78176251e-02 -5.10843471e-02 -4.07586154e-03 -7.86295310e-02
   4.64779548e-02 -1.25758514e-01 -1.49703994e-01  1.98911019e-02
  -6.02434874e-02 -1.04596756e-01 -2.67547332e-02  2.10686281e-01
   2.54302640e-02 -2.58474536e-02  1.38978332e-01  8.00159052e-02
  -5.50476164e-02  1.63845774e-02 -4.96800952e-02 -4.98923566e-03
  -9.15303640e-03  1.44997805e-01  2.29189079e-03 -2.84371525e-02
   2.70766348e-01  3.32315356e-01 -3.39985937e-02 -6.47599921e-02
   1.08711295e-01 -4.92394976e-02 -3.18688899e-02 -4.61570732e-02
   1.42180413e-01  5.16532734e-02 -1.20004244e-01  1.43095739e-02
  -4.48016524e-02  7.86261037e-02  1.75349817e-01  2.02649787e-01
  -4.24961686e-01  3.11841249e-01 -6.55951947e-02 -1.87169518e-02
  -4.28609252e-02 -2.22120598e-01  2.25031991e-02 -6.72985390e-02
  -3.17149200e-02  1.50585160e-01  1.28584087e-01  1.83949620e-02
   1.16031338e-02  6.20667599e-02 -6.10537939e-02  9.42865834e-02
   1.97321340e-01  1.31584555e-01  1.64627567e-01 -2.53640674e-02
  -2.13936031e-01  1.96080863e-01  5.31665571e-02 -5.87342903e-02
  -5.80567047e-02 -4.00697552e-02 -8.73154029e-02  2.03986138e-01]
 [ 3.26915681e-01 -4.78244275e-02  3.28711011e-02 -2.67900825e-02
  -1.14038968e-02 -1.38398141e-01 -7.21991509e-02  1.34464698e-02
  -2.23440155e-02 -7.22936308e-03 -5.18577266e-03  3.41518223e-02
  -5.73131330e-02 -5.51924296e-02  1.68356404e-01  4.54347618e-02
   1.13630757e-01  5.77079654e-02 -7.79098392e-01 -7.63677284e-02
   9.90740508e-02 -2.14057565e-01 -9.86918211e-02  3.10975723e-02
  -2.40975350e-01 -5.75310998e-02 -1.31917208e-01  1.56657636e-01
   2.32577696e-01  1.65174603e-01 -1.82708696e-01  1.87083669e-02
  -4.96023037e-02 -2.22370680e-02 -2.00961847e-02  6.77237809e-02
   1.94389120e-01 -4.90768962e-02  8.59789550e-02  2.30774079e-02
  -6.23824418e-01  2.23483860e-01 -6.94263428e-02 -5.38212843e-02
   7.49811903e-02  4.75051925e-02 -6.43859208e-02 -5.14820106e-02
   1.13148764e-02 -3.20578218e-02 -9.26282257e-03 -1.01381302e-01
   2.39296213e-01 -4.63383235e-02  1.80582568e-01 -4.24873717e-02
  -5.46035022e-02 -2.95456611e-02 -2.51028925e-01 -1.02421939e-02
  -2.18736410e-01 -6.18722513e-02  2.42865924e-03 -1.39271226e-02
  -6.70902431e-02  1.90167055e-01  1.46375507e-01  2.25227512e-02
   1.89124629e-01  5.77693045e-01  2.57346258e-02  2.34451517e-02
   5.51080108e-02 -5.70531376e-02 -7.41186887e-02  1.14867218e-01
  -3.44847627e-02 -8.33253935e-03 -2.02975839e-01 -6.22608000e-03
  -3.30537498e-01  3.70161951e-01  7.64485225e-02  3.08607593e-02
  -1.53999791e-01 -1.29162773e-01 -7.21555725e-02 -3.29890870e-03
   2.34436020e-02  3.99303526e-01  6.37511313e-02  4.74914759e-02
   2.44458858e-03  7.61419535e-02  2.37407237e-01  1.59985181e-02
   6.17983975e-02  1.13105647e-01  9.23245922e-02  2.04705879e-01
  -2.05015734e-01  2.31365971e-02 -6.69505000e-02  1.69466436e-02
   2.30235085e-02 -6.78698644e-02 -1.22506265e-02  2.28210762e-01
   4.91228960e-02  1.73936740e-01 -1.18214227e-01  7.65382685e-03
   3.46470997e-02  2.45758668e-01 -2.12453246e-01 -1.47869989e-01
  -1.37993604e-01 -6.98744580e-02 -2.63601243e-02  1.21020563e-02
  -1.00687608e-01  1.39252990e-01 -2.35475346e-01 -3.61519828e-02
   4.69165295e-02 -3.89540866e-02 -7.84943253e-03  7.54011571e-02]
 [ 1.08520024e-01 -3.80578227e-02 -9.25609376e-03 -8.72881636e-02
  -1.57247502e-02 -5.64260297e-02 -7.11992197e-03  7.39926705e-03
  -5.97444028e-02  3.91582251e-02  5.69252064e-03 -3.15600298e-02
  -1.82054818e-01 -5.62040880e-02  1.09987989e-01 -1.13591633e-03
   7.85475969e-03 -9.49308872e-02 -3.72031987e-01  2.64289454e-02
   1.55169025e-01 -2.30978116e-01 -1.12109147e-01  4.67151552e-02
   3.95591892e-02 -8.70909600e-04 -5.15034556e-01  3.87849994e-02
  -1.74337670e-01 -1.42497346e-01 -4.87525798e-02  1.36873694e-02
  -1.85215846e-02 -7.51266852e-02 -4.13785614e-02 -4.88622524e-02
   1.04329869e-01 -8.56018364e-02 -1.12273827e-01 -1.59498566e-04
   1.09494656e-01  5.04142866e-02  4.33685519e-02  3.08740232e-02
   4.42135707e-02  1.33257046e-01  1.93455815e-02  1.05142863e-02
   3.58092263e-02 -6.28532842e-02  2.28864253e-02 -6.67344332e-02
   1.23928204e-01  3.42573859e-02 -1.49369359e-01  3.23806182e-02
  -5.04096150e-02 -2.42822506e-02 -4.23923247e-02  2.35785604e-01
  -2.27068871e-01 -4.53166850e-02 -1.24523297e-01 -1.52662033e-02
  -3.39966901e-02  2.56171197e-01 -2.02114314e-01 -1.83340732e-03
  -1.71082869e-01 -9.65149477e-02  4.11378853e-02  1.91950556e-02
   3.07541364e-03  5.04459739e-02 -9.69584510e-02 -9.35529172e-02
   1.82568133e-02 -5.55337407e-02 -1.70128774e-02 -5.13423383e-02
  -2.29060978e-01  7.81805366e-02  6.86657010e-03 -2.28999276e-02
   1.69947326e-01 -1.59784377e-01 -4.96951789e-02 -5.41724116e-02
  -8.87439474e-02 -1.47398844e-01 -2.18134448e-02  3.12732868e-02
  -1.17953613e-01 -3.75956260e-02 -1.96355969e-01 -8.10119435e-02
  -4.28981259e-02  2.25157946e-01 -9.51995179e-02 -4.98231590e-01
   1.62566900e-01 -1.82418779e-01  7.22425384e-03 -7.41468593e-02
  -6.23061955e-02 -3.09439570e-01  2.77252458e-02  2.92832077e-01
  -3.08950506e-02 -5.39182067e-01 -1.41229570e-01 -7.33210370e-02
  -9.53279901e-03 -2.89054781e-01  1.39614582e-01  4.84139323e-02
  -8.01525414e-02 -2.45613098e-01  1.59272015e-01 -5.66965900e-02
  -5.71528226e-02 -2.18397662e-01  7.32649416e-02  5.05566224e-02
  -6.48178682e-02 -1.90841798e-02 -3.54904346e-02 -2.85646394e-02]
 [ 5.92059158e-02 -4.74901833e-02 -2.90353417e-01 -1.73294127e-01
   1.19098015e-02  3.16629633e-02  3.02263908e-03 -5.14878258e-02
  -3.64154130e-02  5.21560498e-02  1.57615189e-02 -1.36502283e-02
   1.55411616e-01 -2.12683789e-02 -2.04262301e-01 -5.87653667e-02
   1.11032821e-01  2.29712166e-02  1.82655603e-01  4.80400734e-02
   7.97998160e-02  3.54291916e-01 -5.81599027e-02  1.04104560e-02
  -1.51589885e-01  4.42653075e-02 -3.12659144e-01  1.23979390e-01
   1.47874519e-01  7.90994316e-02 -1.56967908e-01 -7.09482208e-02
   3.29051982e-03  9.63420421e-03  1.31527917e-03 -6.68896437e-02
  -4.15613689e-02  4.79679815e-02  1.93829253e-01  1.43488441e-02
  -3.36094141e-01 -2.13060305e-01 -5.99734597e-02 -9.06704590e-02
   1.87026430e-02 -1.69445336e-01  3.06432135e-02 -6.02996722e-02
  -1.51277836e-02  4.98274378e-02 -7.71047473e-02 -1.63384423e-01
  -2.05888122e-01 -2.85938513e-02  6.94454312e-02 -2.40549687e-02
  -2.00419296e-02 -1.89968124e-02  1.53395817e-01  4.38239099e-03
  -5.03892541e-01  5.02418429e-02  7.14000780e-03  2.92707747e-03
  -2.49970648e-02 -6.33311197e-02  2.13560641e-01  2.82336809e-02
   1.75936967e-01 -3.25671852e-01  1.34378597e-02  1.68322340e-01
  -4.13029902e-02 -6.38792589e-02 -7.45781139e-02  1.15263864e-01
  -4.42102086e-03  7.56569486e-03 -7.59343952e-02 -1.38578685e-02
   3.30214471e-01  1.38690233e-01  3.63798887e-02 -2.55092187e-03
   2.35317573e-01  1.79724559e-01 -2.57560275e-02 -4.13528793e-02
  -6.91383332e-02 -2.29422554e-01 -5.25971875e-02 -5.79925738e-02
  -4.02816497e-02 -1.63403861e-02  9.37302783e-02 -3.71565036e-02
   1.10744014e-01  1.32667020e-01  2.32088957e-02 -1.91789195e-01
  -3.54085028e-01  8.77658576e-02 -3.24822664e-02  4.55824174e-02
  -6.14110120e-02  2.62613893e-01 -1.28642665e-02 -6.51989831e-03
  -1.38865616e-02  1.19902985e-02  9.35567766e-02 -7.99230486e-02
  -3.53732239e-03 -6.36641458e-02 -1.17293641e-01 -6.03272319e-02
  -6.49987487e-03 -1.02832757e-01  1.43516541e-01  6.54642982e-03
   4.10264805e-02  2.18632504e-01 -9.47477669e-02 -3.79979424e-02
   1.06092207e-02 -1.05018370e-01 -4.56553400e-02  5.94693050e-02]
 [ 7.96663240e-02 -3.93371359e-02 -9.19564366e-02 -6.03875145e-02
   8.31983425e-03 -1.36259096e-02 -4.69775759e-02 -7.98221752e-02
  -6.93140551e-02 -5.56320511e-03 -1.29906982e-02  3.04495934e-02
   1.61153171e-02  2.61023454e-02 -5.65980608e-03 -6.62521869e-02
   1.15341254e-01 -5.33561148e-02 -4.63288352e-02 -2.94733085e-02
  -9.06520896e-03 -1.07501505e-03 -5.17631844e-02 -6.78785192e-03
  -7.35097658e-03 -5.07316552e-02 -1.62331033e-02  2.08599214e-03
   2.04781629e-02 -9.10395831e-02 -3.28192823e-02 -2.49152947e-02
  -1.07221186e-01 -1.27075184e-02 -1.94886997e-02  7.07829883e-03
  -1.92883816e-02  2.08519753e-02  7.33470470e-02 -2.98493970e-02
   6.29973263e-02  2.43815426e-02 -5.81915118e-02  1.14290966e-02
  -3.46319117e-02  3.66297550e-02 -5.74655980e-02  2.04539187e-02
   9.40555520e-03 -1.49567798e-02 -4.56198491e-02 -1.62491668e-02
  -3.46996598e-02  1.00911222e-02  6.29062280e-02 -1.13738952e-02
  -2.77685970e-02  1.64242554e-02 -1.53370574e-02 -6.15931451e-02
   5.52842841e-02 -7.71745946e-03 -1.12969995e-01 -6.32213205e-02
  -7.33470619e-02 -1.84250232e-02  3.76655795e-02 -2.46973205e-02
   5.32987304e-02  1.20595575e-03  1.92506909e-02  2.87148729e-02
  -6.29632771e-02 -4.99582775e-02 -9.71721709e-02 -6.59865960e-02
  -9.10197496e-02 -1.57000851e-02  7.45082125e-02  1.92966848e-03
   8.12151469e-03  3.90716828e-02 -4.89808060e-02  1.45912375e-02
  -1.15862826e-03 -5.44286482e-02 -9.16668177e-02 -8.02595094e-02
   4.01287898e-02 -1.32128261e-02 -1.09964974e-01  2.52571050e-02
  -4.75361012e-02  1.63070448e-02 -7.03701973e-02 -1.98252336e-03
  -4.42712131e-04 -1.94967203e-02  2.78739780e-02 -3.12561691e-02
   2.28200853e-02  1.80461966e-02 -8.67013447e-03 -5.35686538e-02
   8.68301932e-03  1.45690545e-01 -3.29357721e-02 -2.85710860e-02
   2.69411225e-03  7.15933368e-02  8.05877522e-03  6.19302988e-02
  -5.45150321e-03 -3.11737647e-03 -2.47134436e-02 -6.33056760e-02
  -7.27689266e-02  2.29834002e-02 -3.98766473e-02 -1.21339530e-01
  -4.07672720e-03  8.15165266e-02 -3.08584720e-02  3.13141122e-02
  -6.34603128e-02 -4.37896736e-02  1.16218477e-02  8.17506947e-03]
 [-4.32898492e-01  2.02282760e-02  9.41078141e-02 -3.67588580e-01
   2.38649137e-02 -1.38983116e-01 -5.39550185e-03  2.31321547e-02
   2.90988013e-02 -6.45694509e-02 -1.29993418e-02 -2.61676200e-02
   2.54606977e-02  3.06334868e-02  2.76877940e-01  3.76145281e-02
   2.06939597e-02 -2.97276340e-02 -1.16463885e-01 -9.80872884e-02
  -2.45418362e-02 -2.15732858e-01  3.29261273e-01  4.54020575e-02
   4.06335071e-02 -1.05178999e-02 -2.41646320e-01 -1.81179885e-02
  -5.95516004e-02 -1.93440124e-01  1.21178932e-01 -1.50840506e-02
   4.19247448e-02  2.09543128e-02  3.76077630e-02 -3.06227412e-02
  -1.52386189e-01 -7.87173584e-02 -9.95178297e-02 -5.17272502e-02
   1.19179592e-01 -1.38792798e-01 -1.19879143e-02  7.91913737e-03
   3.99326459e-02  1.89137340e-01  2.05181856e-02  2.44688615e-02
   3.64194959e-02 -4.98198271e-02  4.39609140e-02 -1.00091122e-01
   1.06318176e-01  4.92116772e-02 -2.31771544e-01  3.07314713e-02
  -1.03030186e-02 -6.27959967e-02  3.68567184e-02  1.08069964e-01
  -2.07470670e-01  4.76183034e-02 -7.49298483e-02  2.70888004e-02
   1.94426114e-03 -5.64684607e-02 -3.78470756e-02  2.86543649e-02
   1.24663778e-01 -2.17175812e-01  1.66863464e-02 -2.06678569e-01
  -2.72168033e-03 -5.01740351e-02 -8.90813172e-02  3.39879431e-02
   4.36421409e-02 -4.03581932e-02 -1.37997344e-01  2.02771965e-02
  -4.59798276e-02 -1.34326458e-01 -2.28582583e-02 -4.27324399e-02
  -2.79715925e-01  3.23970377e-01 -3.25288065e-02 -4.24447246e-02
   9.41019878e-03  2.21817568e-02  3.02912784e-04  4.50791195e-02
   6.10168912e-02 -2.11944524e-03 -1.49032816e-01 -4.20996696e-02
   7.25319758e-02 -1.70991600e-01 -3.03805768e-01 -1.22455761e-01
  -6.02741897e-01 -1.50535345e-01  4.65823570e-04 -3.39760706e-02
  -2.97586806e-03 -3.46896914e-03  2.89435517e-02  1.11835832e-02
  -6.32672757e-02 -1.73731018e-02 -3.79380807e-02 -2.36696661e-01
  -2.68203542e-02  1.94706187e-01 -1.98369529e-02 -2.52941661e-02
   5.48463017e-02 -3.70207399e-01 -1.02017619e-01 -2.24696714e-02
   9.46761146e-02  1.78049579e-01  1.83481529e-01 -9.31097418e-02
   4.50692028e-02 -6.13046112e-03 -1.23291239e-02 -1.67442188e-01]
 [-1.15320019e-01  9.59829995e-05  1.10307120e-01  7.26674916e-03
   4.35040668e-02 -1.68848172e-01 -4.49426174e-02  1.57048013e-02
  -6.89099878e-02  1.45075694e-01 -4.91424575e-02 -6.06699362e-02
   5.57459109e-02 -6.62612244e-02 -1.34373261e-02 -6.41642977e-03
  -1.35693923e-01  5.71013242e-02 -2.01939121e-01 -1.66393782e-03
  -1.53624520e-01 -9.54823419e-02 -7.30730519e-02 -2.80978270e-02
  -9.78547409e-02 -1.41944494e-02  1.10016622e-01  3.94182652e-02
   1.64181828e-01  2.34300479e-01  2.85958260e-01 -7.53412396e-02
  -7.83956647e-02 -4.89331633e-02 -4.86922786e-02 -8.22954029e-02
   2.30752975e-02 -1.55810133e-01 -2.61621743e-01 -7.17953667e-02
  -2.91311890e-01  2.62738943e-01 -2.06693429e-02 -4.29137945e-02
  -4.16393280e-01 -3.47847611e-01 -3.64872292e-02 -4.44380306e-02
  -6.13146052e-02 -4.52020653e-02  3.86672374e-03 -8.71616080e-02
   6.52409494e-02 -1.71864908e-02 -2.26255670e-01 -6.71996996e-02
  -2.85479687e-02 -2.28986759e-02 -2.62890220e-01  1.48142472e-01
  -1.07382767e-01 -6.21298468e-03  3.30902673e-02 -1.21977711e-02
  -7.26460144e-02 -2.25293517e-01  1.66806743e-01 -5.15560657e-02
   8.62282515e-02 -1.58119097e-01 -2.50476245e-02  2.14037850e-01
   6.43979385e-02 -3.75973359e-02  1.55922890e-01  1.23208500e-02
  -5.52202240e-02 -3.92947085e-02  7.98384696e-02  3.63035761e-02
  -1.37807399e-01 -2.51529157e-01  2.71174535e-02 -3.69292474e-03
   9.05864537e-02  5.53008169e-02 -3.95452231e-02 -7.02778324e-02
  -6.62756339e-02  1.04083426e-01  1.39591126e-02 -4.84356470e-02
  -6.94280937e-02 -5.60757220e-02 -2.50507861e-01  9.84711666e-03
  -3.82099524e-02 -2.35305443e-01 -1.15629524e-01  2.51082867e-01
  -1.18667841e-01  2.83920288e-01 -2.43206695e-02 -5.68743853e-04
  -3.21728177e-02  3.80261004e-01  3.63132656e-02 -8.39419812e-02
  -3.59667829e-05 -1.76556170e-01  2.92781323e-01 -3.53927463e-02
   3.15637514e-02 -3.14582661e-02 -2.69734412e-02  7.70572796e-02
  -3.33468616e-02 -7.46658891e-02  1.41909689e-01  1.19900415e-02
  -3.09681028e-01  4.18315157e-02 -5.82260219e-03  2.13112161e-02
  -3.58805396e-02  4.71379124e-02 -8.70389342e-02 -5.98194338e-02]
 [ 7.06211552e-02 -6.69926256e-02  1.06336009e-02  7.20804259e-02
  -5.32928035e-02  1.98540427e-02  2.45320797e-02 -7.35037075e-03
  -2.68678870e-02 -1.29549682e-01 -4.66060005e-02  4.17673215e-02
  -1.27899076e-03  2.78814621e-02 -1.39323741e-01 -4.78498302e-02
   5.75411543e-02 -5.02607375e-02 -2.23495081e-01 -5.41673340e-02
   1.74231812e-01 -2.48332679e-01 -4.33862805e-02  5.46878204e-02
  -2.75106132e-01  3.36861126e-02  2.77445704e-01 -1.08546130e-01
   1.09728560e-01  6.74030036e-02  2.11307988e-01  2.61047180e-03
  -1.05671175e-02 -6.44517830e-04 -3.75192128e-02  4.99923192e-02
   1.07594661e-01  1.50973664e-03 -1.50590688e-01 -4.46557663e-02
  -4.57498729e-01  1.95408180e-01 -3.14454362e-02 -9.41907316e-02
   3.12634647e-01  2.02975273e-01 -8.04279521e-02  2.77062738e-03
  -9.24617574e-02 -6.46383315e-03 -3.14725959e-03 -3.62212695e-02
   1.02635399e-01 -3.03868111e-02 -3.41483861e-01 -8.93427283e-02
   5.03791012e-02  1.49347791e-02  4.44425829e-02  3.16502005e-01
  -2.10038930e-01  3.36545669e-02  1.56057686e-01 -1.18616477e-01
   4.78903577e-02  2.13295430e-01  2.48212531e-01  4.07272130e-02
   2.39748731e-02 -7.26281554e-02 -8.31996351e-02  2.06081018e-01
  -3.36238137e-03  9.16554499e-03  1.03782699e-01  1.60360217e-01
   6.75687343e-02  1.29770720e-03  2.42320821e-02 -1.23750223e-02
   2.27400959e-02  2.54401356e-01  3.59717347e-02 -5.81882298e-02
   1.61190644e-01 -3.60563584e-02 -3.29286233e-02  4.56025600e-02
  -5.63639924e-02 -6.12339862e-02  4.45751064e-02 -5.21023907e-02
  -1.17307484e-01 -3.45813893e-02  2.39244159e-02 -7.38937110e-02
   7.18916878e-02  1.43434703e-01 -2.17302199e-02  3.07961196e-01
  -6.69897273e-02 -1.99219510e-01 -4.80613261e-02  5.44199720e-02
   4.41391692e-02 -2.73002088e-01 -4.26213779e-02  7.40527213e-02
  -1.37699740e-02 -3.58741432e-02 -2.90225267e-01  2.16234345e-02
   3.35005522e-02  3.06414723e-01  1.12127714e-01 -5.27562201e-02
  -1.78324610e-01  1.08956486e-01  2.85524130e-01  2.26650145e-02
  -1.23628013e-01  1.11119576e-01  2.27743492e-01  6.33060634e-02
  -2.47399732e-02 -4.09385283e-03  1.39218941e-02  4.80643809e-02]
 [-6.74705207e-02  9.31708701e-03  1.31551027e-02  1.55355066e-01
   1.71255581e-02 -2.82747686e-01  5.37591381e-03 -4.43955511e-02
   3.55365425e-02 -2.77153868e-02 -2.15015821e-02 -1.47869010e-02
  -8.18877853e-03 -2.80199274e-02  3.22231054e-02 -4.55100536e-02
  -1.00069441e-01 -2.11837552e-02 -4.15243685e-01 -7.94643685e-02
   9.70322713e-02 -3.24015945e-01 -1.81529224e-01 -2.62806658e-02
  -1.64748933e-02 -5.43664536e-03 -4.31015462e-01  7.84804299e-02
  -1.75332069e-01 -4.40041721e-02 -3.49465847e-01 -1.90403536e-02
  -3.51238623e-02 -8.49032998e-02 -5.30438647e-02  5.82163455e-03
  -1.07229613e-01 -1.72389477e-01 -4.33740765e-02  5.18254703e-03
   1.54734462e-01 -1.92082927e-01  2.01779082e-02 -1.10266050e-02
   9.88503247e-02 -7.40039125e-02  4.20775265e-03 -3.34977843e-02
  -5.36675714e-02 -4.33221273e-02  8.06282181e-03 -2.46982843e-01
  -2.68079080e-02 -2.21293867e-02 -1.90020859e-01 -4.46869768e-02
  -1.86352730e-02  2.91806236e-02 -3.08741387e-02  2.37747908e-01
  -2.03033835e-01 -7.55672250e-03 -7.60160610e-02  3.62126604e-02
  -7.00106323e-02  2.92555004e-01 -3.83913636e-01  4.62156720e-02
  -2.64010698e-01  1.62206307e-01  2.15722062e-02 -1.35465384e-01
  -6.81622773e-02 -3.52820158e-02 -5.05666316e-01 -8.11365023e-02
  -2.89347507e-02  1.17332302e-02  8.40497464e-02 -5.61385900e-02
   3.01816184e-02  1.80936545e-01  2.43217703e-02 -6.11401424e-02
   9.12668183e-02 -7.94477090e-02 -1.13531509e-02 -2.03684345e-02
   6.10406399e-02  9.47883469e-04 -2.56738588e-02 -7.59466318e-03
  -8.61550197e-02 -2.84173582e-02 -1.88810006e-01 -2.46574134e-02
   1.02524191e-01  1.28054827e-01 -6.71701133e-02 -4.76235151e-01
  -9.25317705e-02 -3.55458647e-01 -4.25865222e-03  1.33052198e-02
  -1.59157962e-02 -2.85791278e-01 -6.55739801e-03  1.75599054e-01
  -8.32349584e-02 -3.92611861e-01 -8.65523443e-02  2.09293328e-02
  -3.39328460e-02 -3.49027634e-01  1.08802646e-01  4.69732210e-02
  -2.16263399e-01 -1.74052566e-01  2.27062240e-01 -3.27189974e-02
  -1.22407041e-01 -2.16191366e-01  3.97728086e-02  3.89740542e-02
   5.52231818e-02 -1.70500409e-02  4.60873209e-02 -1.34947775e-02]
 [-2.10195675e-01 -4.99696061e-02 -1.61806345e-01 -1.70714781e-01
  -4.50897999e-02  1.79964378e-01 -2.57158987e-02  1.50946481e-02
  -6.59427568e-02  1.25486314e-01 -5.75564383e-03  2.52525192e-02
  -6.72513694e-02 -1.57444272e-02 -3.77088547e-01 -6.41846806e-02
   3.12037051e-01 -8.95633474e-02  6.47463202e-02 -1.05771003e-02
  -4.52666990e-02  2.88034618e-01  7.08295479e-02 -6.05624616e-02
  -7.88863897e-02  3.87300253e-02  4.58250120e-02 -4.00196351e-02
   9.40897837e-02  5.13397343e-02  4.76021133e-02  2.52642594e-02
  -9.48314741e-02  2.57068407e-02 -9.52683447e-04  6.87559694e-02
  -6.25380874e-02 -4.28311862e-02  4.86362018e-02 -5.27866669e-02
  -3.79278809e-01 -4.44702923e-01  2.27188170e-02  4.27380810e-03
  -9.71870497e-02 -1.72555223e-01 -6.43893555e-02 -3.74397896e-02
  -3.88316102e-02  2.78311558e-02 -8.61338899e-02 -1.49352834e-01
  -2.66763940e-02 -6.95823282e-02 -6.61455989e-02 -2.25428361e-02
  -5.96784812e-04  3.59022357e-02 -1.69984341e-01  7.65768811e-02
  -2.04741791e-01 -1.61694910e-03  1.36450708e-01  4.47600707e-02
   4.51664068e-02 -1.56445444e-01 -1.29289581e-02 -2.80147735e-02
   1.27686739e-01 -2.27706090e-01  2.50887740e-02  2.81752888e-02
  -1.62886865e-02 -6.30303323e-02  1.73236251e-01  8.50711111e-03
  -1.43387606e-02 -2.69396175e-02  2.22887024e-01 -6.76127225e-02
   2.57233292e-01 -4.64882731e-04  3.42129171e-02  4.78546880e-02
   3.57092738e-01 -8.99041146e-02 -5.78811839e-02 -5.20475805e-02
  -8.08757469e-02 -2.83085704e-01 -5.93510941e-02  2.07154900e-02
  -1.27454370e-01 -1.10353567e-01 -1.71552256e-01 -6.27514049e-02
   2.45703235e-02  2.01858915e-02 -1.54411122e-01 -2.55158037e-01
  -1.30156681e-01 -8.83491337e-02 -2.87664868e-02 -6.59714565e-02
  -6.34139553e-02  2.49633744e-01 -6.36994615e-02 -1.09982558e-01
  -3.75676975e-02 -1.99290328e-02 -1.51259392e-01 -1.14590444e-01
   2.76452745e-04 -9.26418081e-02 -5.69305122e-01  5.81889972e-02
  -2.59707626e-02 -2.59530880e-02 -1.56127382e-02 -1.07848709e-02
  -1.27318963e-01  5.42075448e-02 -1.27950804e-02  5.98896248e-03
   3.33822034e-02 -4.03155573e-02 -1.09827174e-02 -1.11233722e-02]
 [ 5.99639267e-02 -4.22677398e-02 -6.05521351e-02 -1.65804438e-02
   3.68740410e-02  4.78944853e-02 -4.31325808e-02  3.78536023e-02
  -4.67182994e-02  1.15409466e-02  2.34007388e-02  1.80160366e-02
   4.18515988e-02 -5.94547503e-02 -4.24437672e-02 -2.27705613e-02
   2.41709892e-02  1.27345221e-02 -8.16000849e-02  2.17546467e-02
   6.35486618e-02 -2.23466195e-03  3.97646427e-03 -6.30127117e-02
  -2.98855361e-03 -5.07765785e-02 -1.66044943e-02  6.94516078e-02
  -2.04700120e-02 -7.84638152e-02 -1.38640562e-02 -2.69386042e-02
  -1.41864708e-02 -7.76679590e-02 -1.59654208e-02 -9.75714698e-02
  -6.46995604e-02 -8.59805010e-03  7.87780881e-02  1.55201089e-02
   4.79857773e-02  4.16560657e-03 -1.20878816e-02 -9.25261900e-02
   3.79617736e-02 -4.90834657e-03 -4.06058915e-02 -3.87150794e-02
  -2.76490096e-02 -6.04656860e-02  1.36945071e-02 -1.48825347e-01
  -4.33880230e-03 -4.54722047e-02  4.57307398e-02 -4.65652347e-02
  -1.22869611e-02  2.22606305e-02 -5.62178567e-02 -3.17291692e-02
   3.29175703e-02 -5.94849810e-02 -1.07320501e-02 -2.95420177e-02
   1.41200721e-02 -5.40930964e-02  4.70193885e-02 -2.93718036e-02
   1.00214571e-01  3.32439728e-02 -2.73163468e-02  9.02396813e-03
   6.69373246e-03 -1.77812250e-03 -1.65304333e-01 -3.88864465e-02
   9.13910381e-03 -1.53877260e-02 -2.55583245e-02 -4.74992469e-02
  -8.68768711e-03  1.29784308e-02 -4.13386226e-02 -3.55225205e-02
   2.38359571e-02  1.41462386e-02 -9.30306911e-02 -4.11920249e-03
  -3.05190179e-02  4.60764505e-02  6.88211108e-03 -1.98375396e-02
  -1.28298610e-01 -1.45847509e-02 -1.47639019e-02 -1.99975111e-02
  -7.19907433e-02  2.13622432e-02 -3.74449347e-03  2.63585299e-02
  -1.96919516e-02  7.54523724e-02  7.98889901e-03 -8.77307355e-02
   1.82108246e-02  1.43004239e-01 -6.67352006e-02 -6.13684654e-02
   3.28307748e-02  8.71897936e-02 -1.03865974e-01 -2.21653506e-02
  -4.05282304e-02  7.79877231e-02 -5.75085580e-02  3.87441670e-03
  -9.76070985e-02  3.49445306e-02  1.28254397e-02 -6.68289140e-02
  -9.77158025e-02  6.49432093e-03  5.08651473e-02 -1.69089548e-02
  -6.02634624e-03  4.19104770e-02 -3.98262478e-02  6.67999461e-02]
 [-4.39468324e-02 -3.34842429e-02 -2.25951523e-02 -3.16323578e-01
   4.93304729e-02 -5.14061265e-02 -4.22865599e-02  3.85374203e-02
  -6.32381886e-02 -3.01840574e-01  2.15236750e-02 -4.91806194e-02
   2.75248021e-01  1.07648391e-02  1.69570059e-01 -6.12417273e-02
  -4.85610887e-02  2.77035292e-02 -8.19237456e-02  5.26114143e-02
   4.58887964e-02 -6.80329084e-01  8.64638574e-03  5.13204671e-02
  -1.14728682e-01  2.49706563e-02  2.96728034e-02 -1.89192537e-02
  -2.13827603e-02 -1.18401691e-01 -2.05833614e-01 -9.79025662e-03
  -1.12655638e-02  1.03892786e-02 -4.24624793e-02  6.95822714e-03
  -7.74417296e-02 -1.80193663e-01  8.61861259e-02  1.44536439e-02
   3.82547230e-02  8.51929411e-02  1.31796841e-02  1.86155308e-02
  -6.01418614e-02  1.91589408e-02  4.60732728e-02 -1.91515181e-02
  -4.99771312e-02 -1.31003596e-02  5.49811870e-03  4.65901289e-03
  -3.24430615e-02  5.12598008e-02 -2.79928923e-01  3.87672558e-02
   1.64252166e-02 -7.68865645e-03  1.85176417e-01  2.44607538e-01
   1.58866614e-01 -4.70576137e-02  6.60220608e-02  5.77885238e-03
  -2.95392014e-02 -3.00871074e-01  6.05792040e-04 -6.92366213e-02
  -2.78923959e-01  4.66180556e-02 -5.35908639e-02 -1.70377433e-01
  -3.43637122e-03 -1.76059920e-02  2.72891968e-01  6.54996932e-02
  -5.27189896e-02 -4.79819486e-03 -5.89661337e-02  5.02176757e-04
   2.10611135e-01  5.01535721e-02 -2.42958125e-02  4.65116873e-02
  -5.96189033e-03 -1.28462225e-01 -5.51850884e-04 -4.48426567e-02
  -1.19570777e-01 -1.35117948e-01 -5.02189156e-03  2.75199246e-02
   6.49113432e-02 -4.72335741e-02 -1.38863683e-01 -1.18318116e-02
   9.29145217e-02 -1.55148789e-01  7.46281520e-02  4.44475636e-02
  -2.81839758e-01 -8.51648226e-02 -1.13846343e-02 -2.11893814e-03
  -6.59834817e-02 -3.80877182e-02  5.51865064e-03  1.16526447e-01
  -4.50916961e-02  1.22143246e-01 -2.56757081e-01 -2.44328469e-01
  -2.37691607e-02 -8.31104591e-02 -3.74327078e-02  4.10040803e-02
   5.25790639e-02 -3.28936964e-01 -1.35228798e-01 -1.53649878e-02
  -4.43784660e-03 -7.68256187e-02  2.07079753e-01 -4.13049757e-02
   4.68406966e-03  4.71723080e-02 -1.78070981e-02 -3.14049833e-02]
 [-3.42246220e-02  3.94504182e-02  9.14840028e-03  7.22945929e-02
  -8.77001956e-02  9.54811350e-02  2.95822043e-02  1.20655373e-02
  -4.46369387e-02  4.76046540e-02 -2.40819864e-02 -6.38371110e-02
   9.68272537e-02 -2.50732284e-02  1.93774387e-01 -2.59065907e-02
  -3.53387967e-02  3.61554809e-02  3.17278691e-02 -3.11236419e-02
   3.23616624e-01  1.83930382e-01 -1.50263488e-01  2.07625842e-03
  -4.35915925e-02 -4.10111714e-03  1.76258489e-01  1.86362322e-02
   3.12245339e-01 -1.29175961e-01  6.26010448e-02 -5.76322787e-02
   4.38454784e-02  1.31517574e-02  1.55525059e-02  6.53766468e-02
  -9.64670181e-02  4.53273728e-02 -1.50432587e-01 -9.82882604e-02
  -1.43499538e-01  1.72803223e-01 -5.40799461e-02 -1.89779419e-02
   7.15932576e-03 -2.22212210e-01 -2.40887776e-02 -7.32139451e-03
   9.62205417e-03 -6.44211248e-02 -7.06340000e-02  1.88936934e-01
  -1.12825766e-01 -5.28541133e-02 -1.55635998e-01 -5.02059376e-03
  -6.05222285e-02  2.41102763e-02  1.48311676e-03 -1.15132265e-01
  -1.60421565e-01 -9.34787735e-04 -9.98409837e-02 -4.35398668e-02
  -6.35968968e-02 -1.12584352e-01  9.41849649e-02 -5.15964180e-02
   1.34581804e-01  1.65884271e-01  1.40261287e-02  2.52089471e-01
   2.20158659e-02  1.17248611e-03  1.48723647e-01  4.41658981e-02
  -2.07008538e-03 -5.73837124e-02  1.68565273e-01 -5.39791631e-03
   1.61533117e-01 -2.85025463e-02 -7.00452775e-02 -2.50665136e-02
  -1.50431702e-02  9.22890455e-02  1.49549032e-02  4.88712192e-02
  -2.55085453e-02 -7.27111623e-02  7.42259901e-03 -3.53506058e-02
   1.83775038e-01  8.13153237e-02  1.46424934e-01 -1.94985401e-02
   8.50218982e-02 -1.89445406e-01  4.66821417e-02 -1.23722710e-01
  -2.26869896e-01  3.50424126e-02  1.20846564e-02 -5.03441878e-02
  -4.80356216e-02 -6.21393658e-02 -2.46935859e-02 -3.51262987e-02
  -3.94457318e-02  1.80302739e-01  3.26306611e-01  2.65104920e-02
  -4.88653742e-02 -9.89480838e-02 -1.57694012e-01 -7.26084411e-02
  -1.64483055e-01 -4.53729570e-01  1.72478199e-01  3.03813722e-03
  -1.81588158e-01  1.36458665e-01 -1.78468212e-01 -4.31798995e-02
   2.70001916e-03 -6.69768229e-02 -1.49964085e-02 -2.90321499e-01]
 [-2.09014863e-01 -7.11385254e-03  1.98919594e-01 -3.29475924e-02
   4.09124000e-03  4.39351387e-02  5.87291270e-03  2.93300617e-02
   1.18209822e-02 -1.87806502e-01 -1.21176764e-02  4.04376723e-03
   1.52415885e-02 -3.30535062e-02 -1.41947061e-01 -4.10477445e-02
   2.37198099e-01 -1.16825588e-02  2.35176146e-01  2.62472257e-02
   6.35409877e-02  3.78277786e-02 -7.87785053e-02 -3.54498550e-02
  -3.53356376e-02  8.49630684e-03  7.18324855e-02 -1.64746746e-01
  -8.63341838e-02  3.66409756e-02  3.70501690e-02  2.56816391e-02
   2.06989590e-02  4.68355109e-04 -6.89705834e-02 -3.66439968e-02
  -1.47587866e-01 -6.70115799e-02 -2.71013290e-01 -3.63509431e-02
  -3.82111609e-01  1.25110969e-01  6.95094094e-03 -3.26126367e-02
   5.30121513e-02  1.14856698e-01 -9.46055651e-02 -5.32882754e-04
   7.86197837e-03 -4.11230735e-02  7.30315689e-03 -4.12819199e-02
  -8.95051658e-02  1.69111788e-03 -4.59132865e-02 -1.62362959e-02
   2.42941771e-02  3.13471556e-02 -1.53350025e-01  2.90430874e-01
   3.73970456e-02 -4.87538613e-02 -7.15849102e-02  2.08785944e-02
  -4.68458608e-02 -2.57985443e-02  1.15215600e-01 -1.19702332e-02
   1.42222390e-01 -1.28455117e-01 -7.75862113e-02  9.04052146e-03
   1.41646219e-02 -1.61627727e-03  1.04727857e-01  1.85147867e-01
   2.63114180e-03 -7.36366436e-02 -1.44372553e-01  1.16963321e-02
   1.80372104e-01 -6.42770678e-02  8.83093104e-03  1.96377132e-02
   3.46947722e-02  4.01554517e-02  5.77615984e-02 -2.74404362e-02
   1.02209926e-01 -7.03302920e-02 -8.04334581e-02 -7.27774063e-03
  -3.35428379e-02  7.81176612e-03 -3.13947558e-01 -3.81112508e-02
  -1.78793877e-01 -5.89511544e-02  2.00791821e-01  5.79438061e-02
   4.06218506e-02 -1.15954712e-01 -4.48201820e-02 -7.28975385e-02
  -1.34008750e-03 -3.54827821e-01  1.42737245e-02  1.93383276e-01
  -5.62730730e-02  2.41826877e-01  9.16933119e-02  3.87129299e-02
  -7.60029480e-02  1.60082862e-01 -1.10984311e-01 -9.16777551e-02
  -9.75923464e-02  7.21181482e-02  5.56125045e-02  8.44762921e-02
  -1.74089998e-01 -7.53358658e-03 -4.83688824e-02 -5.71463183e-02
  -6.61945576e-03 -1.89883318e-02  1.01686046e-02 -1.61369652e-01]
 [-2.65457094e-01 -1.97164435e-02  7.29920529e-03 -2.37411316e-02
  -1.25933155e-01 -2.51863271e-01 -4.06865887e-02 -5.61027341e-02
  -2.36366354e-02  1.03974575e-02  2.46870928e-02  5.32905720e-02
   1.27112046e-01 -4.36297394e-02 -1.58421304e-02 -2.53381003e-02
  -5.33346646e-02 -1.21672690e-01 -2.51860231e-01 -8.74542743e-02
   6.57635257e-02 -7.37171248e-02 -1.14220910e-01  4.57287543e-02
  -1.66911241e-02 -4.46672142e-02 -2.37399474e-01 -3.05428147e-01
  -1.60970151e-01  8.75630826e-02 -4.38574970e-01 -5.80775775e-02
  -1.36144254e-02 -6.70212694e-03  5.07290363e-02 -8.90848264e-02
   6.12302963e-03 -4.53831740e-02 -7.37003759e-02  3.26234624e-02
   8.42120275e-02 -5.55824563e-02 -3.05583775e-02  2.99843904e-02
  -5.91758229e-02  1.09637178e-01 -2.81844717e-02 -2.89618708e-02
  -2.49451268e-02 -2.14453973e-02 -4.10849694e-03 -5.20754099e-01
  -9.37559009e-02  3.15411985e-02 -3.15987840e-02 -3.99646685e-02
   4.85881381e-02  4.56889905e-02 -1.97791040e-01  6.52834475e-02
  -1.02144286e-01  2.61380114e-02 -1.40715569e-01  6.68122992e-02
   6.17333017e-02  3.03930957e-02 -2.69928545e-01  1.37107652e-02
   2.97173467e-02  7.48868063e-02 -4.61192168e-02  1.44834399e-01
  -7.46697886e-03 -2.96666082e-02 -1.75150618e-01  8.49800631e-02
  -1.20868320e-02 -3.74431051e-02  1.76363558e-01  9.53080319e-03
  -2.20725704e-02  2.08801538e-01  5.69651276e-02  4.41206805e-02
   2.79318035e-01 -2.48910347e-03  3.34177166e-02 -3.91600244e-02
   3.79140228e-02 -1.15037799e-01 -5.02261147e-02  4.07959074e-02
  -1.19660206e-01 -5.52638844e-02 -3.95106785e-02 -2.71328874e-02
  -3.72865982e-02  1.71117350e-01 -1.67983577e-01 -3.07238281e-01
   2.98532285e-02 -6.36209846e-02  3.25912004e-03  1.30208563e-02
  -2.26844307e-02 -2.31695995e-01 -6.29278868e-02  6.52850270e-02
  -5.31638600e-02 -1.95662826e-01 -5.53724403e-03 -1.59880713e-01
  -5.33721484e-02 -9.25017297e-02  8.16407204e-02 -5.82212098e-02
  -6.95882812e-02  9.25659835e-02  1.22178122e-01  2.84279324e-02
  -1.52630910e-01 -8.02802593e-02  2.20946312e-01  5.11932708e-02
  -3.04456670e-02 -2.74406578e-02  2.76973583e-02 -3.43998730e-01]
 [-3.24335366e-01  3.57932150e-02 -1.98460534e-01 -1.93256080e-01
  -5.75820506e-02  5.82535081e-02 -1.56185832e-02 -5.86585365e-02
  -3.83189670e-03  1.39720425e-01  9.03733168e-03 -2.28581764e-02
   1.44217283e-01 -3.90980281e-02 -4.68617231e-01  9.75432713e-03
   9.38366801e-02 -7.19541982e-02  8.97419453e-02 -2.77923252e-02
  -1.55460462e-01  1.06212951e-01 -2.26492956e-01  2.28660461e-03
  -2.15472225e-02 -3.18932869e-02 -7.82168657e-02  2.61596620e-01
  -1.13567263e-02  1.00166619e-01  4.11439925e-01  6.07277907e-04
   2.27605179e-03 -3.69543172e-02 -1.77970473e-02 -1.10092368e-02
  -9.21932533e-02  2.69989759e-01 -6.01236075e-02  1.86181460e-02
  -2.58201122e-01 -1.29115060e-01 -5.30013405e-02  6.00392930e-03
  -1.03992864e-01 -4.49685216e-01 -1.11743631e-02  5.24702482e-02
   9.04914085e-03 -6.37236536e-02 -6.66762143e-02 -3.37819874e-01
  -1.22447900e-01 -6.44966727e-03  2.29292437e-01  3.10568530e-02
   4.40505855e-02 -6.37326986e-02 -3.87075931e-01 -7.80248493e-02
  -3.04884195e-01 -4.03720737e-02 -1.33478135e-01 -1.17923040e-03
  -7.64825419e-02 -5.16923927e-02  7.86985978e-02 -3.03769484e-02
  -1.33790718e-02  2.78937686e-02  1.52878817e-02 -2.17244238e-01
  -3.97885591e-02 -1.54914008e-02  6.56214803e-02  1.06064603e-01
  -4.10482697e-02  9.82945133e-03 -1.83581829e-01 -6.75922260e-02
   1.25995517e-01  3.38178431e-03  7.34028779e-03 -5.20629287e-02
   2.26470694e-01 -6.00284226e-02 -2.83573139e-02 -4.44997549e-02
  -5.03721684e-02 -2.36030325e-01 -4.13313583e-02 -3.27549092e-02
  -1.32088080e-01 -4.70245555e-02 -1.65386125e-01  5.44147159e-04
  -3.66681553e-02  1.95249822e-02 -3.49105299e-02 -8.19173008e-02
  -1.52508736e-01 -4.47473302e-02 -1.01364451e-02 -2.96068955e-02
  -7.33982474e-02  1.27954349e-01 -4.43434641e-02 -9.51367691e-02
   1.60479546e-02  1.51030153e-01  9.54093784e-03  4.11557443e-02
   2.20067408e-02 -1.48472145e-01 -1.48747265e-01  1.58316586e-02
   5.23439469e-03  2.04109207e-01  6.23863600e-02  1.27716772e-02
  -1.81660220e-01  1.15964957e-01 -6.12759516e-02 -2.92801932e-02
  -2.55760713e-03  4.48090443e-03  3.49060670e-02  1.70896858e-01]
 [ 9.87562165e-02 -3.08424253e-02 -9.74868834e-02  1.36878015e-02
  -5.03485315e-02 -9.43899006e-02 -6.77809268e-02 -3.19060199e-02
   3.48501578e-02 -7.29066655e-02  1.48466974e-02 -6.12839833e-02
   7.32788667e-02 -5.70478924e-02 -7.21741319e-02  2.14507785e-02
   1.65268360e-03  6.51786709e-03 -6.73867092e-02 -4.62144986e-02
   6.02676012e-02  2.32192762e-02 -1.30962789e-01 -5.85594401e-02
  -5.88236228e-02 -3.71736065e-02  9.57451016e-03  6.91540018e-02
  -9.53176804e-03  1.29221873e-02 -5.04724681e-03 -4.41887714e-02
   6.74557779e-03  1.29635977e-02  6.45976812e-02 -1.01117336e-03
  -1.92230139e-02  4.76692878e-02  1.12563215e-01  2.05522757e-02
   5.94125129e-02 -8.52253381e-03 -6.00729473e-02 -7.97291100e-02
  -2.41254568e-02  2.21264120e-02 -6.22222014e-02 -7.22395256e-02
  -3.33513394e-02  1.28992302e-02 -6.14281371e-02 -1.55889332e-01
   9.65505093e-02  3.33959609e-02  4.30946089e-02 -6.88202828e-02
  -4.81059477e-02  2.40303716e-03 -4.48897593e-02  8.83611366e-02
   1.18957888e-02 -1.80622470e-02 -1.22651391e-01  2.16526669e-02
  -1.78791508e-02 -1.59093807e-03  7.23802373e-02 -5.11509413e-03
   3.94126736e-02  2.58357823e-02 -4.06757481e-02 -1.93624347e-02
  -5.17647974e-02  1.47357630e-02 -9.72779989e-02 -7.44762877e-03
   9.30725783e-03 -8.13003853e-02  5.53109422e-02  1.55435735e-02
  -3.71574648e-02  7.26613775e-02 -6.31356910e-02  1.16648236e-02
   1.75236929e-02  4.89530042e-02 -1.32381199e-02 -8.53692461e-03
   5.89005426e-02  2.01210249e-02 -5.59887923e-02 -5.20790666e-02
  -1.82754308e-01 -3.45790274e-02 -6.57419115e-02 -9.50889662e-02
  -1.41719475e-01 -2.38625729e-03 -8.19376670e-03  2.69522462e-02
  -2.11575851e-02  2.11911537e-02  3.53211686e-02 -2.75262780e-02
  -5.09964377e-02  8.65685269e-02  1.02661327e-02 -9.64115933e-03
   2.57933550e-02 -3.45322245e-04 -2.51530670e-02 -4.64722689e-04
  -1.68005680e-03 -1.11797163e-02 -2.57471334e-02  5.44584952e-02
   8.47138558e-03  8.87754411e-02  8.20242800e-03 -6.60274103e-02
   4.51415442e-02  5.19641582e-03  9.39734057e-02 -2.16634497e-02
   1.07419314e-02 -3.29503603e-02 -2.89807804e-02  5.98259754e-02]
 [-1.14900015e-01 -2.00668126e-02  3.28598320e-01 -1.51226386e-01
   1.38806880e-01  1.62735879e-01 -9.20472015e-03  5.24066649e-02
  -4.16766666e-02 -1.54259145e-01 -5.30214719e-02  2.57272739e-02
   3.18753608e-02 -1.53626800e-02  1.47939831e-01 -4.75991294e-02
  -2.39819642e-02 -2.37666164e-02  4.01315317e-02 -1.85608398e-02
   8.80597904e-02 -1.49803862e-01  1.09093130e-01  1.76952835e-02
   6.52460009e-02  2.36957781e-02  2.41052508e-01 -8.91392156e-02
  -1.12620354e-01 -1.19675910e-02 -1.85908619e-02 -2.38228822e-03
   6.35757372e-02 -3.79065163e-02  2.82325502e-02 -3.50096747e-02
  -3.29631306e-02  1.03336181e-02  8.54359120e-02 -2.28984561e-02
   3.72681096e-02  6.57252520e-02  5.75301982e-02 -9.24874991e-02
  -1.47967860e-01  2.49301553e-01 -5.69480211e-02 -4.14843820e-02
  -5.58345839e-02 -2.15458851e-02 -6.84383214e-02  8.27942565e-02
  -1.22116119e-01  2.28585042e-02 -2.68913031e-01  4.49071229e-02
   3.16668738e-04 -6.41943589e-02 -9.96634513e-02  1.89797543e-02
   8.33107159e-02 -3.84111865e-03  1.40587106e-01 -5.26372083e-02
  -9.34543367e-03  1.81941599e-01 -3.26367557e-01  2.87072621e-02
   3.12347353e-01  7.66301304e-02 -3.53245884e-02 -2.67747998e-01
   2.73786113e-02 -1.33746192e-02  1.43063039e-01  9.09554735e-02
  -9.16012656e-03 -1.56251248e-02 -8.01724941e-02 -5.62294833e-02
  -8.12347978e-02 -3.99650447e-02 -2.60984320e-02 -6.15761206e-02
  -1.17635265e-01 -2.37822935e-01  8.53701122e-03  6.48742169e-03
  -2.79886961e-01 -3.71038541e-02 -2.48286612e-02 -4.17540446e-02
   2.95213833e-02  2.15118583e-02 -1.44364983e-02 -9.67000891e-03
  -3.60350609e-01 -3.27274352e-01 -1.99411243e-01 -1.26508385e-01
  -1.14284776e-01  3.56560320e-01  1.69840530e-02 -3.23724328e-03
   1.17367739e-02 -4.73171733e-02 -2.87792794e-02  1.81354046e-01
  -3.53867933e-02  2.36357674e-01 -5.96738495e-02 -6.93901703e-02
   6.94168732e-03 -5.73501177e-02 -9.73166227e-02  4.14916128e-02
  -8.89335424e-02 -4.34100255e-02 -4.68572676e-02  1.49618592e-02
   1.40340447e-01 -7.09199533e-03  2.12275937e-01 -2.27259714e-02
   4.88915481e-02 -2.07578447e-02 -1.14582619e-02 -1.97486684e-01]
 [-1.43014221e-03 -8.06901678e-02  4.55823392e-02  7.43021294e-02
   3.89363873e-03 -3.13894480e-01 -3.40232663e-02  2.46581174e-02
  -1.82478148e-02  1.53307021e-01 -2.61978675e-02 -3.05272616e-03
   2.78989132e-02 -3.84313762e-02  1.21903025e-01  4.02977392e-02
  -2.06668034e-01  4.38448275e-03  1.71359330e-01 -5.20563014e-02
   2.59405673e-01 -7.08648115e-02  1.83321774e-01 -4.97179851e-02
  -1.57155037e-01 -9.70609859e-02 -5.61458021e-02 -6.52514696e-02
  -5.58581166e-02 -1.70037933e-02  1.49446711e-01 -3.43226567e-02
  -4.69524115e-02  4.60212231e-02  2.89704232e-03 -5.96855730e-02
   1.17959715e-01  4.00897861e-03 -2.78293490e-01  4.22928296e-02
   7.31686801e-02  1.84493333e-01 -6.52423650e-02 -1.73357893e-02
   4.96544152e-01 -2.60103077e-01 -5.68832345e-02  4.35785055e-02
   2.57264357e-02 -5.79302572e-02 -2.95719486e-02  1.55626163e-01
  -1.53860925e-02  4.94217686e-02 -1.54752612e-01 -7.18946680e-02
  -5.00624925e-02 -8.36494379e-03 -8.85299873e-03 -3.28541279e-01
  -1.12644076e-01  3.72511260e-02  1.16812371e-01 -6.74137846e-02
   1.64878927e-02 -7.78963864e-02 -1.34310022e-01 -1.56309493e-02
   1.88988343e-01  2.80365556e-01 -7.36757219e-02  1.82188138e-01
   3.55760269e-02 -7.12002516e-02  4.49107230e-01  1.10961042e-01
   3.70145440e-02 -4.66087945e-02  2.64387190e-01 -2.42082961e-02
   4.31927383e-01 -8.89088586e-02  1.91025324e-02 -4.05446030e-02
   9.05261934e-03 -3.06674987e-02 -1.01956921e-02 -5.41795529e-02
  -1.52561545e-01  4.19330120e-01 -6.75133914e-02 -5.30233979e-02
   2.03925893e-01 -3.11139897e-02  9.31979418e-02 -1.22368960e-02
  -7.17052445e-02 -4.08661336e-01  5.33879474e-02 -1.21285692e-01
  -3.31359915e-02  4.44547050e-02  4.95159663e-02  1.81559492e-02
   3.98761258e-02 -8.76548439e-02  8.51587113e-03 -6.49187639e-02
  -1.66156087e-02  5.66278175e-02  4.59359437e-02 -4.66521196e-02
  -2.50606127e-02  5.56899875e-04  1.23522997e-01 -5.71600646e-02
  -8.29880536e-02  8.23725685e-02  7.44129196e-02  2.27066204e-02
  -6.20595738e-02  1.67434126e-01 -2.57880203e-02 -3.75632979e-02
  -5.48611917e-02 -8.15248117e-02  4.47195210e-02  9.88734886e-02]
 [-1.58398245e-02 -3.93071696e-02 -1.80799603e-01  3.22393067e-02
  -9.16034281e-02 -1.90425947e-01 -6.26255274e-02  4.43204418e-02
   5.34049273e-02  2.46269759e-02 -1.75979659e-02 -5.83798215e-02
   4.04208936e-02 -1.81899015e-02  4.63920534e-02 -4.08615768e-02
   1.97212826e-02 -1.82690658e-02  3.96925583e-02 -7.54597336e-02
   1.53036833e-01  2.53116518e-01  2.01349139e-01  9.14734602e-03
   1.43050432e-01  1.71081517e-02 -2.71159738e-01  1.28081813e-01
  -2.11851329e-01  1.78487618e-02  1.21291533e-01 -1.33138113e-02
  -4.88020144e-02 -6.25220686e-02 -8.82880241e-02 -6.46871477e-02
   2.65837848e-01 -2.73663640e-01  7.69139603e-02 -1.21685497e-01
  -1.09309137e-01  2.15500250e-01  1.13475146e-02  2.51074154e-02
   1.72320142e-01  1.15050264e-02  1.18395984e-02  2.29743030e-02
  -9.62971896e-02 -4.55318280e-02 -1.87577715e-03  1.39411492e-02
  -1.39777418e-02 -4.43513840e-02  1.94299161e-01 -8.65731612e-02
  -4.86624204e-02  4.81571211e-03 -1.05979420e-01  1.01304300e-01
  -2.57462978e-01 -1.88608728e-02 -3.15879971e-01 -5.22281379e-02
   3.20671834e-02 -8.89657661e-02 -3.53909470e-02 -4.32867855e-02
   1.09266125e-01 -7.89850578e-02 -1.40202940e-02  4.54807328e-03
   4.63030003e-02  4.02181596e-02  6.89823702e-02  4.82420474e-02
   2.24118475e-02  5.59856966e-02  2.35917289e-02 -6.25252351e-02
   2.92177200e-02  2.05327004e-01 -2.44437251e-02  2.94337869e-02
   2.41898134e-01 -2.49363869e-01  3.50531079e-02 -5.95622025e-02
   1.08759843e-01  1.85839534e-01 -7.17926547e-02  4.05421257e-02
   1.98532566e-01  5.03070503e-02  4.88478541e-02 -3.56035717e-02
   4.17829156e-02 -6.48109540e-02  2.39569291e-01  3.36478325e-03
   1.87586322e-01 -2.06970260e-01 -4.08496968e-02  7.69871549e-05
  -6.78054765e-02 -1.22088693e-01 -1.22967055e-02 -1.86943710e-02
  -4.94180433e-02 -2.22213283e-01  1.51431397e-01 -2.59987172e-03
   5.14651015e-02  2.59769857e-01  2.06085309e-01 -3.37711833e-02
  -8.39434937e-02  2.00531527e-01  3.09902847e-01  2.97378246e-02
  -3.05568039e-01 -2.79868487e-02  9.08884332e-02 -4.01219800e-02
   8.17067269e-03  1.19187031e-03  3.06369010e-02 -5.23691848e-02]
 [-2.65055478e-01  1.25670955e-02 -1.27810940e-01  2.94886362e-02
  -1.68599501e-01 -5.81590086e-02 -3.22144404e-02 -2.35178415e-02
  -2.29046438e-02  8.12071264e-02 -6.25652745e-02  4.49608490e-02
  -1.41258135e-01  1.69963259e-02  1.35830253e-01  2.71239337e-02
  -1.21550886e-02 -2.93920413e-02 -1.26836076e-01 -5.15614860e-02
  -1.97955351e-02  3.30880880e-02  2.41264626e-02  4.03637104e-02
  -6.98687807e-02  4.09786105e-02 -3.41210514e-02 -6.03054352e-02
  -1.44593149e-01  9.95198265e-02 -4.07957099e-02  1.67595819e-02
  -8.09882134e-02 -5.58135845e-02 -4.36435640e-02 -7.70977288e-02
   1.95339411e-01  2.23886594e-01 -1.09333515e-01 -2.86724232e-02
  -1.60988942e-02 -1.02357320e-01 -2.61122789e-02 -3.11794132e-02
   2.07473859e-01  1.21206857e-01 -4.09130305e-02  5.65211521e-03
  -3.54666933e-02  3.70114446e-02 -3.35909911e-02 -3.47716838e-01
  -7.80877545e-02  5.61059546e-03  3.14782299e-02 -2.95884740e-02
   1.07815182e-02  1.06978435e-02 -9.11557078e-02  6.32575676e-02
  -7.95156360e-02  1.10591184e-02 -2.10088849e-01  1.57701671e-02
   2.36900467e-02  2.59474725e-01 -7.22265095e-02 -6.32215142e-02
   2.33199559e-02  5.93398809e-02 -1.78810302e-02 -1.19079836e-01
  -5.21630086e-02 -1.67711787e-02 -1.46699429e-01 -1.97590943e-02
   1.88437123e-02 -2.55275629e-02  2.50037014e-02  1.35788713e-02
  -4.61432263e-02  9.96433645e-02 -5.90311885e-02 -5.99862188e-02
   9.31463540e-02  2.08278652e-02 -7.36172572e-02 -5.67322746e-02
   2.80750662e-01  2.65634898e-02 -2.67882086e-03 -2.38295160e-02
  -4.32635881e-02 -5.00863092e-03 -8.89352560e-02  1.63217783e-02
  -8.48963410e-02  2.18846858e-01 -1.29394233e-01 -1.85788304e-01
  -7.32845962e-02  1.07486853e-02  5.92807867e-02  5.09587862e-03
  -1.48742255e-02 -1.90087296e-02  4.57166173e-02 -7.64571577e-02
  -2.76132636e-02 -8.02606717e-02 -1.22949958e-01 -1.17465802e-01
  -6.36348873e-02  5.70000373e-02  3.43008302e-02  1.34010706e-02
  -1.19808704e-01  1.54364690e-01  1.03180289e-01 -1.43437451e-02
   4.23776135e-02 -5.29182293e-02  1.40352517e-01 -5.23960739e-02
   3.47089283e-02  4.77402620e-02  3.74373235e-02 -1.13091268e-01]
 [-1.61309287e-01  2.22875178e-02 -1.23781949e-01  5.60794100e-02
   7.65920756e-03  2.75041819e-01  2.94645280e-02 -5.55155687e-02
   1.83444489e-02  1.15773633e-01 -3.90826911e-02 -1.08647142e-02
   1.87555045e-01  5.94973415e-02 -2.90113062e-01 -3.56427161e-03
   1.70936305e-02 -1.37027120e-02  1.09182566e-01  1.95961520e-02
  -1.21775806e-01  3.23170960e-01 -2.25661203e-01 -5.64536750e-02
  -6.35086000e-02  8.55052844e-03  1.77165270e-01 -2.21560872e-03
   4.54207063e-02 -8.77028927e-02  1.39531568e-01 -5.30288480e-02
  -9.07077864e-02 -2.48803059e-03  3.73605303e-02 -1.10955834e-01
  -8.12255777e-03 -2.90384721e-02  6.85629323e-02 -2.97887381e-02
  -1.00136377e-01 -1.54473886e-01 -1.95437465e-02 -6.61674365e-02
   3.92308719e-02 -1.30207971e-01 -2.56873406e-02 -5.33567481e-02
  -8.50118920e-02 -5.72559722e-02 -3.85500118e-02 -2.78713644e-01
  -2.22939849e-01  4.22971603e-03 -1.75965190e-01  9.64489859e-03
   5.84064126e-02  4.84025776e-02  1.27672032e-01  1.26863401e-02
   1.77864790e-01  6.18480109e-02 -1.77341327e-01  3.96610387e-02
   6.86894590e-03  4.51971851e-02 -2.12373778e-01 -4.22060266e-02
   4.53970321e-02 -4.75902669e-02  2.39546765e-02 -1.03318565e-01
   3.20918346e-03 -3.23399268e-02  2.06726149e-01  1.20568231e-01
  -1.02520995e-01 -2.72351690e-02  4.09852788e-02 -4.39383015e-02
   2.30479866e-01 -4.24336754e-02 -5.02596311e-02 -6.08429359e-03
  -1.04342796e-01 -2.93500931e-03  1.64198875e-02 -1.40752327e-02
  -9.75377671e-03  1.22515969e-02 -6.25437945e-02 -4.66091707e-02
  -1.60455093e-01 -5.49917594e-02 -3.92203182e-01 -6.52158856e-02
  -9.74786431e-02  2.28853547e-03  3.90935928e-01 -1.48919411e-02
  -2.98329592e-01  1.01133287e-01 -1.40984096e-02  1.42554417e-02
  -4.37860452e-02  2.16516733e-01 -6.97824284e-02 -2.61134151e-02
   1.30987475e-02 -1.61235884e-01 -2.08739594e-01 -3.12472833e-03
  -5.12402318e-02 -1.29522800e-01 -1.77937552e-01 -2.42219679e-02
   3.95443961e-02  1.46619081e-01  1.63466975e-01 -3.02825086e-02
  -2.23851040e-01 -1.32626519e-01  1.56170294e-01  3.38499658e-02
  -3.71118709e-02 -3.91039439e-02 -1.60246110e-03  1.85471438e-02]
 [ 6.57168403e-02  4.10555787e-02 -1.37432054e-01 -2.54796958e-03
  -9.56693385e-03  6.36431724e-02 -9.03695151e-02 -6.97568804e-02
  -5.95317967e-02 -5.56229688e-02 -2.94206385e-02 -3.68614607e-02
   8.02152604e-02 -4.50538658e-02 -1.93692110e-02 -5.46940155e-02
  -9.99743342e-02  8.28375667e-03 -1.17239496e-02 -2.30796710e-02
   4.81562577e-02  4.23329473e-02 -1.41026929e-01 -6.97065145e-02
  -2.04341292e-01 -4.42808755e-02 -4.38217679e-03 -2.71760542e-02
   7.62938894e-03  8.00617272e-04 -1.45449638e-02 -4.85451557e-02
  -4.53262590e-02 -5.29619418e-02  1.81320850e-02 -4.94906269e-02
  -1.71019230e-02  1.24310583e-01  1.13590248e-01 -5.14038838e-02
   3.91318239e-02  8.02141726e-02 -6.67819977e-02 -2.37843897e-02
  -3.55426571e-03  6.56449571e-02 -3.49417813e-02  1.11615565e-02
  -3.43848206e-02 -5.34852929e-02 -6.24862500e-02 -6.92925900e-02
   4.84194160e-02  1.72107294e-02  2.18790816e-03 -6.52057752e-02
  -6.87512010e-02 -5.41059971e-02  6.48902133e-02  5.09353541e-02
  -7.66907725e-03 -4.48311307e-02 -1.47898510e-01 -5.70882261e-02
  -2.84572542e-02  4.23119813e-02  7.78517425e-02 -5.72589859e-02
   6.44888878e-02  1.03044815e-01  1.84999336e-03 -4.74788956e-02
  -5.04959002e-02  9.19963885e-03 -9.89537835e-02  5.53770177e-02
   1.54484101e-02  2.24202666e-02 -2.99271429e-03  3.34457792e-02
   6.66921074e-03  9.32360962e-02 -6.63631782e-02  4.10025492e-02
   1.94384959e-02 -3.83004844e-02 -1.11969458e-02 -3.89008932e-02
   1.36052873e-02 -5.32394163e-02  2.98595186e-02  1.95638295e-02
  -8.41615498e-02 -1.02761230e-02 -1.08175986e-02 -1.03334948e-01
  -5.71596660e-02 -2.96243150e-02 -6.10473529e-02  1.45907653e-02
  -4.88597415e-02 -4.54465970e-02 -8.70123412e-03 -7.44770989e-02
  -6.46461770e-02  1.03772804e-01 -2.54784827e-03  3.97621654e-02
  -1.22305788e-02  9.41257328e-02 -5.73682934e-02 -1.54896095e-01
  -9.56071075e-03  1.67360306e-02  7.15618357e-02  5.52940071e-02
   2.49955747e-02  5.93102910e-02  1.39125658e-03 -1.17939040e-01
   2.07360070e-02 -6.08066097e-02 -3.92939150e-03  4.89778724e-03
   2.56630331e-02 -6.49315789e-02  3.45914741e-03  2.36904360e-02]
 [-2.67660201e-01  2.01912001e-02  2.40950018e-01  2.41374485e-02
   6.59170747e-02  2.06522509e-01 -5.91909792e-03  8.64067860e-03
   4.53847535e-02 -2.62510031e-01 -1.78687647e-02 -2.56311893e-02
   2.46965170e-01 -5.13863266e-02  3.51050571e-02 -5.14214747e-02
  -6.28359392e-02 -4.70934696e-02 -1.63606722e-02 -7.07337353e-03
   1.65191427e-01 -1.23754172e-02  1.97033942e-01  1.90492738e-02
  -1.41691193e-01 -4.80560884e-02  7.03638420e-02 -3.22316512e-02
  -3.95098031e-02  6.24761265e-03  1.17773339e-01  2.05384940e-02
  -1.98459439e-03 -1.93036012e-02  5.00921272e-02 -2.70640645e-02
   2.22066909e-01  1.35023028e-01  1.46417078e-02 -3.76312733e-02
  -7.50871301e-02 -9.88323167e-02 -2.92318612e-02 -8.83003399e-02
  -1.57955423e-01  1.08283654e-01 -5.25989793e-02 -2.42678393e-02
   7.08324090e-03 -9.57736559e-03  1.03594400e-02  3.05790305e-01
   1.39927585e-02  3.54886055e-02 -4.18779582e-01 -1.06655657e-02
   1.52319698e-02 -8.18901416e-03  9.62651595e-02  1.71173826e-01
  -7.67516419e-02 -4.12965603e-02  7.20520318e-03 -6.71767890e-02
  -1.07030626e-02 -7.50096440e-02  3.99717279e-02 -2.92225052e-02
   1.93469405e-01 -2.77859449e-01 -6.17679767e-02 -1.00852568e-02
  -7.33393282e-02 -1.10163621e-03 -3.53466362e-01  1.76852047e-02
  -6.70849085e-02 -3.80797982e-02  6.05480298e-02  1.19249681e-02
  -7.75091257e-03 -1.15244031e-01  2.52171047e-02 -4.93499674e-02
  -1.47921676e-02 -2.29976386e-01  4.12130915e-02 -5.15512936e-02
  -7.69730136e-02 -2.39100382e-01 -4.32416312e-02  3.45181078e-02
   2.48755999e-02  2.28969250e-02 -8.72223377e-02 -2.64710709e-02
  -1.74408674e-01 -9.10698697e-02 -2.17593879e-01 -4.16337326e-02
  -2.01752052e-01  2.43619800e-01  3.97797562e-02 -1.88446864e-02
  -5.91894425e-02  1.78972229e-01  3.59109603e-02  3.96806836e-01
   3.16549949e-02  8.59564990e-02 -1.57157797e-02 -1.56627342e-01
   1.19929761e-03 -5.24091395e-03  9.90014970e-02  5.38567603e-02
   1.16166919e-01 -2.18177244e-01  2.36025497e-01  2.81272810e-02
   2.10971817e-01  1.70109794e-01 -2.18567044e-01  3.36314328e-02
   2.78255902e-02 -4.39732596e-02  4.67839167e-02 -3.57899249e-01]
 [-3.76456439e-01 -6.94884285e-02  1.29845396e-01  1.39059186e-01
   2.13216501e-03 -2.51946092e-01  2.15917639e-02 -4.53661606e-02
  -4.55220938e-02  1.84388772e-01  3.56156453e-02 -2.94654202e-02
  -2.03767538e-01  1.97912809e-02  1.88106373e-01 -6.53034523e-02
  -2.28362530e-03 -3.27035822e-02 -1.56251967e-01  7.41047924e-03
   1.93307593e-01 -4.72824089e-02  8.45234245e-02  1.36423586e-02
  -1.16359778e-01 -6.25502039e-03  8.97897631e-02  1.69288695e-01
   5.86387888e-02 -8.39766487e-02  2.95769125e-01 -2.73136031e-02
  -1.30115170e-03 -4.95655555e-03 -2.87531875e-02 -7.83104822e-02
   2.00441852e-01 -5.68600325e-03 -4.28680703e-02 -1.08597809e-02
   2.57534862e-01  2.39164516e-01 -9.62999165e-02 -2.62432024e-02
  -1.38240054e-01 -6.49301484e-02  1.22518754e-02 -6.38365448e-02
  -4.25194725e-02  9.95704159e-03 -4.12075631e-02  2.31561720e-01
  -7.93652725e-04  7.74568319e-03 -5.07247336e-02 -1.05388919e-02
  -4.49812263e-02 -6.17617220e-02 -4.11520720e-01  1.29701458e-02
  -2.66387224e-01 -3.91080007e-02  3.49030234e-02 -1.08239211e-01
   1.09022828e-02 -2.42678747e-01 -5.86963408e-02  4.65879124e-03
   8.46420154e-02  1.09096289e-01  2.94706933e-02  1.92191914e-01
   4.81771529e-02 -3.58225256e-02 -2.13058993e-01  7.15845972e-02
  -4.80542704e-02 -9.39092264e-02  1.65803075e-01 -4.12767194e-02
  -1.24364235e-01 -1.78024128e-01 -6.01321384e-02  4.36721854e-02
  -1.00298971e-01 -1.45470902e-01 -5.04776202e-02  4.09771949e-02
  -2.10197851e-01  4.20904718e-02  5.02927564e-02 -4.65646014e-03
   1.57983273e-01 -3.62770855e-02 -6.54200763e-02  3.37214023e-02
   1.45816982e-01 -1.04013994e-01 -1.87656567e-01 -3.14944573e-02
  -5.68276159e-02  7.14453757e-02  2.46413331e-02 -6.20707422e-02
  -5.52593209e-02  1.51212841e-01  3.67708020e-02 -7.27966204e-02
  -7.54831582e-02  1.76670969e-01 -4.94845770e-02  8.10768157e-02
   3.54979262e-02  3.28783207e-02  1.94455795e-02  6.55822009e-02
  -1.90959066e-01  2.70882934e-01 -5.89776859e-02  8.19530189e-02
   9.73328128e-02  1.27951488e-01  2.10173026e-01  4.37394762e-03
  -2.16537099e-02 -4.58317026e-02  2.44513508e-02 -2.43426517e-01]
 [-2.84066081e-01 -9.25213993e-02 -5.96498773e-02  3.44679505e-01
  -8.66407976e-02 -2.20489100e-01 -5.08382693e-02  5.07740006e-02
   1.22750187e-02  6.14160337e-02 -7.57613629e-02 -3.61653939e-02
  -2.39171863e-01  3.17678750e-02 -1.54540300e-01 -2.14514975e-02
  -1.94001690e-01 -1.79310422e-02 -1.05982296e-01  2.04292182e-02
   2.82637537e-01  2.49559417e-01  4.09856963e-04 -1.18939560e-02
  -4.18852456e-02 -2.30699629e-02 -5.53481653e-02  1.34633929e-01
  -2.01149613e-01 -1.19902715e-02  1.35021016e-01  1.35365929e-02
  -4.16833535e-02  1.03630079e-02 -3.70015763e-03 -4.47375178e-02
   1.55979007e-01  1.64005980e-02  3.56062464e-02 -8.85296613e-03
   1.14191100e-01  5.83054833e-02  8.98455083e-03 -1.84758883e-02
   3.74727011e-01  6.73762783e-02 -9.68200490e-02  2.05532610e-02
  -5.75606711e-02 -3.97881009e-02 -1.09727774e-02 -1.71377622e-02
   1.41739994e-01 -2.25074403e-02 -1.24451548e-01  3.17759216e-02
  -8.61827806e-02  2.82274093e-02 -5.73720574e-01  5.75620271e-02
  -1.79826826e-01 -9.78251845e-02 -6.69825473e-04 -1.28941402e-01
   2.87255440e-02 -1.81889638e-01  1.55966014e-01 -2.95139998e-02
  -5.18530197e-02  1.72672719e-01 -5.81897795e-04 -1.90811396e-01
  -2.17040014e-02  1.49667487e-02  1.01527639e-01  6.01315796e-02
  -7.77560519e-03  6.68025613e-02  7.04916418e-02 -8.04338604e-02
   2.37823829e-01 -5.64449392e-02 -5.13739302e-04  3.42550948e-02
   1.51171144e-02  1.13261893e-01 -1.20045925e-02 -5.98286875e-02
   2.20274448e-01 -5.79008572e-02 -7.55651370e-02  8.17464606e-04
   9.05964430e-03  1.15675621e-01 -4.00908262e-01 -6.55777529e-02
  -7.37015009e-02  1.51551336e-01  5.90286106e-02 -3.78442407e-02
   6.18807971e-02  4.67508174e-02 -3.93938869e-02 -8.52249265e-02
   2.55064666e-02 -4.95747365e-02  6.08545952e-02  1.75787389e-01
  -4.07407507e-02  1.16118550e-01  8.46523046e-02  1.06111102e-01
  -4.21842262e-02  8.54400918e-02  8.30422342e-02 -1.41706780e-01
  -2.57609546e-01  1.96832865e-01 -5.77116236e-02  9.88651738e-02
  -3.50888014e-01  1.03214055e-01 -1.92990212e-03 -4.55564633e-03
  -5.43334894e-02 -3.77034862e-03 -2.77677663e-02 -3.09324414e-01]
 [-2.68759966e-01 -3.00608445e-02  9.91614535e-02  1.14969211e-03
  -2.11803000e-02 -1.93368807e-01 -9.28475801e-03  4.29415368e-02
   1.55258197e-02 -5.94893545e-02 -1.56696187e-03  5.43235093e-02
  -3.29554491e-02 -2.61018015e-02 -3.67983393e-02  4.31025177e-02
  -2.23206222e-01  2.84442538e-03 -5.48281297e-02 -2.91913580e-02
   1.24968607e-02  9.77943316e-02 -2.01088801e-01  3.17772888e-02
  -8.16774517e-02  1.20471213e-02 -4.67266619e-01  2.29100287e-02
  -1.61619648e-01 -4.06234227e-02 -5.44108748e-02 -3.83752994e-02
  -1.04836769e-01 -1.60006266e-02  3.86554860e-02 -2.31662951e-02
   5.59988059e-02 -1.38414547e-01 -7.70688429e-02  4.05099057e-02
  -1.41205594e-01  2.07771156e-02 -8.85456987e-03 -1.77519899e-02
   1.54772565e-01  1.24765318e-02 -5.89669831e-02  4.18109372e-02
  -2.53682714e-02  1.19606927e-02 -6.05449788e-02 -1.69255435e-01
  -1.83054041e-02 -2.70311125e-02 -1.71935875e-02  6.09042458e-02
   5.73309548e-02 -6.24712408e-02  1.57805026e-01  2.34582741e-02
  -1.11496128e-01 -4.50884104e-02 -1.35583580e-01 -2.92855930e-02
   5.97022176e-02  4.18340802e-01 -1.42131537e-01 -1.29745454e-02
   2.07321957e-01 -2.41189852e-01 -5.62280193e-02  8.57850537e-02
  -4.26842757e-02  2.15492975e-02 -4.79245007e-01 -6.51457068e-03
   3.14553529e-02 -1.60295051e-02 -1.47377610e-01 -2.25105435e-02
  -1.33756906e-01  2.94827223e-01 -5.15568964e-02 -1.22443801e-02
   7.80676911e-03  1.13624752e-01 -5.74934250e-03 -5.26238009e-02
  -1.03926875e-01  5.27225956e-02 -5.28365523e-02 -4.19189446e-02
  -1.46691367e-01 -4.31684777e-02 -3.60985287e-02  3.41643989e-02
  -1.41912550e-01 -1.56191215e-02 -3.07917744e-01 -6.71688497e-01
   6.39456883e-03 -1.69849992e-01  2.65037920e-02  3.10205575e-02
  -8.55441205e-03 -1.44860875e-02 -2.22907644e-02 -8.77871439e-02
   1.31183555e-02 -8.15200061e-02 -1.04208089e-01 -9.25197899e-02
   3.45088765e-02  4.48607244e-02  1.82133272e-01  3.31673585e-02
  -7.20436350e-02  1.33028582e-01  1.09966591e-01 -3.26714069e-02
   6.93189427e-02 -3.20377171e-01  3.13971400e-01  4.82254513e-02
   2.93484889e-02  3.98980826e-02 -2.44718287e-02  9.58203822e-02]
 [ 6.51121885e-02 -3.22709163e-03  4.06102799e-02 -2.70447861e-02
  -5.21058589e-02  1.51663065e-01 -5.80521785e-02 -2.60142442e-02
   1.24610430e-02  1.32038325e-01 -3.56752202e-02 -1.53301824e-02
   1.38873249e-01 -7.06609413e-02 -2.28770494e-01 -1.13938842e-03
  -7.79562071e-02  2.48060692e-02  2.05924034e-01 -7.40536079e-02
  -4.88726050e-02  9.89782736e-02 -2.84013040e-02 -3.23734656e-02
   5.72601669e-02  3.89012545e-02 -1.49633005e-01  1.32916883e-01
  -6.30062670e-02  2.09364891e-01  1.06740132e-01  1.61872804e-02
  -1.15615940e-02  2.17037667e-02  2.79203653e-02  2.12771799e-02
   8.52281004e-02 -1.06740445e-01  5.02397157e-02 -6.34598136e-02
   5.36625609e-02 -2.12712660e-01 -1.13941520e-03 -6.16265610e-02
  -7.65937101e-03  4.74535022e-03 -2.75642233e-04  4.51087430e-02
   9.83621925e-03 -3.99790443e-02 -8.14541280e-02 -1.25642538e-01
  -3.29761915e-02  2.40150299e-02 -5.05180731e-02 -1.12160472e-02
   5.50687255e-04  7.16991350e-03  1.63415596e-01 -9.04790238e-02
   1.50761157e-01 -4.43349406e-02  5.81099838e-02  4.29453552e-02
  -3.63729931e-02  1.97886559e-03  5.74355870e-02 -3.26083638e-02
  -1.53733954e-01 -2.95213342e-01  4.05814120e-04 -7.11971670e-02
   8.59398209e-03 -2.87241451e-02 -1.17678255e-01  2.80885696e-02
  -6.19104952e-02 -1.32207498e-02  5.86774647e-02 -8.24445635e-02
  -1.24161109e-01  5.66681810e-02 -4.26239148e-02 -1.36140333e-02
   3.01637799e-01  2.13035956e-01 -4.48308475e-02 -5.68328574e-02
   1.03698343e-01  4.35247682e-02 -6.92225844e-02 -3.20489183e-02
   1.83867421e-02 -5.63710630e-02 -3.23068023e-01 -9.34946910e-03
   2.91853666e-01 -1.29755318e-01 -1.30406648e-01 -8.24377090e-02
  -2.74782777e-01  9.62236598e-02 -5.07426597e-02 -6.04060665e-02
  -4.11165468e-02  4.60262895e-02 -1.82160102e-02 -1.32555485e-01
  -6.37695640e-02  1.54016510e-01 -1.02927058e-03 -1.59071878e-01
   6.56556245e-03  1.21666148e-01 -1.94364283e-02  1.18530840e-01
   1.51777297e-01 -1.58008169e-02 -3.73308621e-02 -1.11204013e-01
  -1.04943521e-01  5.06136343e-02  2.43631244e-01 -5.04164509e-02
   3.03968620e-02 -4.19473797e-02 -5.81965670e-02 -1.74396142e-01]
 [ 6.46868860e-03 -5.17609045e-02 -1.85854942e-01 -2.55579334e-02
   3.81179303e-02  2.86875889e-02 -8.89658928e-03 -7.31335580e-02
   3.39932144e-02 -6.34040013e-02  2.47465633e-02  2.53015589e-02
   1.42732769e-01  1.20053692e-02  5.02881631e-02 -1.37293115e-02
   1.28907962e-02 -4.27973904e-02 -3.10381763e-02 -5.49784228e-02
   5.09145185e-02  1.04151759e-02 -1.01455942e-01 -5.92453480e-02
   7.55630955e-02  4.03608419e-02  1.18548134e-02  1.86971873e-02
  -5.04774973e-03 -2.81035621e-02  1.70145724e-02  4.49309573e-02
  -3.33832651e-02  7.84638897e-03  4.92138825e-02 -1.52381863e-02
  -2.35927049e-02  7.99866989e-02  1.37030883e-02 -4.43684757e-02
   6.33467808e-02  1.05161695e-02 -4.05693203e-02 -5.22929616e-02
   6.88545108e-02  2.69384049e-02 -8.50209892e-02 -1.94549318e-02
  -3.77825275e-02 -2.03697346e-02 -4.08165306e-02 -1.92124739e-01
   4.51511852e-02 -2.08364818e-02  1.26848640e-02  2.35918500e-02
  -1.74436551e-02  2.72344779e-02 -1.79700553e-02  6.95495084e-02
   5.83989434e-02 -3.31599377e-02 -1.75548479e-01 -4.10292670e-02
  -6.62641823e-02  8.88091028e-02 -1.23990541e-02 -2.65601017e-02
   1.25870481e-02  6.03019074e-02 -6.68544397e-02 -1.76356582e-03
  -4.88711596e-02 -3.82399075e-02  1.64363515e-02 -1.70124441e-01
  -7.99112618e-02 -5.94604574e-02  6.23955205e-02  1.17541747e-02
   5.70184328e-02  4.90778312e-02  5.31113101e-03 -5.37440926e-02
  -3.55509319e-03 -2.58547310e-02 -8.32723547e-03 -3.02730798e-04
   1.86379664e-02 -1.12587593e-01 -1.11952730e-01  4.24811840e-02
  -1.68324947e-01 -6.74346313e-02 -7.55293295e-02 -8.59626606e-02
  -6.90547973e-02  9.34459548e-03  1.63773652e-02 -1.96058005e-02
   5.58981448e-02 -9.50240567e-02 -1.67465545e-02 -5.57232760e-02
   1.05400514e-02  7.79862627e-02 -2.42844950e-02  6.33652657e-02
   4.02140506e-02  1.10037036e-01  6.40639383e-03 -9.70141962e-02
  -1.56519923e-03  4.99797016e-02  5.56822382e-02  4.10773866e-02
  -1.74638268e-03  1.12771563e-01  7.07231760e-02 -9.34643298e-02
   6.82729483e-02 -5.82711026e-02 -6.49332553e-02 -6.07996993e-02
   2.25233454e-02 -5.86217158e-02  5.30802794e-02 -1.34278005e-02]
 [-1.55941218e-01 -5.89731298e-02  7.20137283e-02  1.92243606e-02
   1.61713570e-01  3.16033453e-01 -4.71328646e-02  2.29162388e-02
   7.64223374e-03 -1.38064399e-01 -3.44547518e-02 -6.55797347e-02
  -6.58926666e-02 -4.44176011e-02 -1.63457971e-02 -3.75316013e-03
   8.89872089e-02 -8.16413462e-02  3.87983806e-02  5.72198182e-02
   6.36536926e-02  2.92730667e-02  1.26472667e-01  1.66257694e-02
   9.15537775e-02 -5.97898988e-03 -2.17379272e-01 -2.61911321e-02
